tree
version=v4
num_class=1
num_tree_per_iteration=1
label_index=0
max_feature_idx=21
objective=binary sigmoid:1
feature_names=Column_0 Column_1 Column_2 Column_3 Column_4 Column_5 Column_6 Column_7 Column_8 Column_9 Column_10 Column_11 Column_12 Column_13 Column_14 Column_15 Column_16 Column_17 Column_18 Column_19 Column_20 Column_21
feature_infos=[0:4840784] [87670330446:4363500810353] [2:inf] [2:inf] [2:inf] [2:inf] [2:inf] [2:inf] [2:inf] [2:inf] [2:inf] [2:inf] [1:173.03720196085774] [1:296.11512410106224] [1:424.08836146472669] [1:521.36930236183855] [1:582.17743057256064] [1:616.22649825268957] [1:634.25775089819649] [1:643.53805621761558] [1:648.24607524870828] [1:650.61726808664241]
tree_sizes=3379 3504 3502 3501 3503 3498 3500 3506 3496 3501 3510 3486 3503 3509 3516 3508 3513 3490 3498 3522 3508 3517 3501 3515 3519 3511 3502 3501 3516 3516 3520 3516 3525 3521 3509 3522 3511 3517 3515 3511 3522 3521 3522 3533 3515 3521 3526 3489 3520 3523 3533 3513 3500 3505 3517 3526 3508 3517 3503 3516 3519 3515 3500 3513 3520 3509 3518 3503 3521 3506 3521 3528 3525 3524 3508 3513 3526 3507 3525 3508 3530 3539 3519 3509 3506 3503 3520 3524 3517 3517 3515 3522 3528 3508 3521 3518 3513 3531 3529 3515 3524 3516 3508 3514 3535 3529 3524 3514 3531 3524 3508 3521 3530 3513 3506 3524 3528 3536 3518 3532 3502 3532 3523 3535 3533 3497 3514 3537 3524 3532 3524 3532 3506 3524 3525 3523 3526 3537 3519 3531 3508 3532 3527 3532 3517 3527 3515 3518 3524 3513 3520 3531 3531 3524 3521 3529 3541 3533 3528 3522 3537 3526 3517 3518 3528 3539 3530 3521 3523 3519 3528 3525 3519 3522 3534 3534 3525 3534 3543 3547 3530 3531 3526 3530 3540 3540 3522 3528 3541 3524 3519 3531 3538 3527 3534 3530 3533 3537 3534 3524 3539 3534 3527 3518 3519 3515 3497 3529 3526 3527 3530 3524 3519 3534 3517 3531 3522 3528 3523 3538 3527 3526 3535 3530 3521 3530 3525 3522 3526 3535 3529 3537 3524 3532 3538 3525 3513 3542 3532 3532 3540 3539 3531 3527 3535 3529 3526 3512 3526 3517 3524 3533 3529 3527 3534 3537 3516 3521 3540 3530 3526 3520 3548 3525 3520 3507 3531 3530 3543 3510 3536 3538 3537 3523 3535 3534 3539 3534 3547 3546 3548 3523 3524 3537 3522 3516 3528 3529 3530 3535 3545 3515 3522 3524 3528 3524 3520 3533 3531 3504 3538 3540 3533 3519 3539 3518 3515 3539 3523 3515 3521 3532 3527 3518 3533 3526 3519 3552 3519 3511 3528 3525 3526 3529 3535 3522 3516 3533 3537 3534 3532 3511 3518 3527 3542 3542 3505 3521 3545 3546 3535 3535 3517 3532 3501 3531 3521 3521 3526 3522 3537 3522 3528 3534 3536 3528 3507 3524 3542 3525 3521 3521 3508 3527 3517 3512 3529 3528 3498 3509 3527 3510 3533 3531 3528 3547 3514 3536 3513 3527 3519 3520 3540 3526 3518 3497 3526 3528 3511 3515 3515 3538 3505 3509 3528 3507 3503 3531 3524 3511 3549 3530 3519 3518 3543 3506 3495 3492 3506 3494 3511 3511 3500 3514 3535 3517 3511 3513 3503 3506 3494 3492 3542 3505 3529 3486 3502 3529 3519 3496 3495 3535 3538 3513 3552 3494 3502 3530 3500 3539 3493 3488 3516 3481 3483 3492 3504 3477 3487 3509 3486 3487 3497 3472 3485 3493 3505 3493 3515 3484 3483 3513 3493 3478 3484 3504 3519 3490 3505 3484 3490 3529 3491 3511 3488 3492 3474 3532 3477 3529 3506 3503 3474 3529 3504 3513 3500 3541 3507 3518 3513 3505 3478 3496 3531 3533 3524 3502 3500 3504 3518 3498 3512 3491 3518 3505 3502 3515 3493 3512 3489 3495 3519 3506 3514 3516 3485 3500 3501 3493 3480 3509 3512 3516 3510 3515 3491 3486 3544 3486 3514 3517 3501 3536 3521 3525 3488 3519 3494 3490 3510 3506 3480 3499 3489 3504 3502 3512 3516 3508 3488 3505 3515 3556 3502 3499 3488 3557 3508 3510 3505 3553 3474 3483 3493 3525 3504 3514 3509 3509 3513 3500 3510 3531 3523 3535 3518 3510 3505 3510 3527 3528 3533 3514 3486 3513 3520 3505 3498 3507 3511 3560 3514 3526 3506 3495 3555 3511 3506 3519 3566 3531 3309 3517 3511 3538 3498 3498 3514 3495 3538 3498 3479 3313 3523 3514 3558 3496 3491 3507 3542 3502 3314 3531 3321 3487 3518 3316 3510 3498 3513 3498 3321 3504 3538 3487 3514 3488 3486 3524 3498 3485 3503 3484 3509 3505 3327 3535 3508 3096 3512 3495 2981 3460 3497 3226 3499 3519 3504 3499 3484 3508 3487 3512 3493 3508 3150 3127 3493 3093 3559 3517 3461 3508 2675 3495 3498 3503 3501 3193 2784 3514 3492 2905 3519 3530 3494 3548 3507 3397 3552 3508 2766 3512 3503 3523 3558 3506 2182 3502 3452 3491 3266 3471 3535 3505 3475 2747 3490 3113 3257 3497 3538 3110 3489 3508 2897 3474 3537 3489 3456 3489 3520 2289 3493 3503 3499 3483 2208 3114 3489 3462 3467 3405 3450 3490 3554 3488 3530 3487 3474 3525 3480 2294 3464 2299 3515 3530 3466 3485 3348 3537 3515 3535 3505 3491 3477 3463 3480 3366 3538 3481 3472 3475 3460 3488 3485 3535 3493 3509 2193 3535 2791 3521 3500 2192 3510 3489 3366 3483 3484 2193 3452 3545 3500 2859 3542 3549 3493 3533 3292 3496 3535

Tree=0
num_leaves=31
num_cat=0
split_feature=2 1 1 2 1 2 1 11 1 1 0 1 1 1 0 4 1 9 1 7 1 5 3 9 9 1 0 4 1 1
split_gain=18927.2 6720.98 4969.27 3531.12 4767.51 1697.91 1404.51 1340.75 1108.42 968.659 877.171 805.657 802.642 758.731 646.695 599.263 677.644 560.286 534.709 499.035 314.715 313.268 291.949 280.885 243.856 240.873 713.402 218.115 216.426 216.014
threshold=21.500000000000004 1119808876872.0002 702778646930.00012 18.500000000000004 1687824514253.0002 26.500000000000004 4363500795995.5005 22.500000000000004 702778646930.00012 1119808869562.5002 4354032.5000000009 4363500800431.0005 2627809358204.0005 3985955692129.0005 4352582.5000000009 16.500000000000004 1119808877208.5002 3742.0000000000005 4363500793984.0005 122.50000000000001 1119808873443.0002 18.500000000000004 32.500000000000007 3742.0000000000005 24.500000000000004 3704300934221.5005 4333585.0000000009 34.500000000000007 4363500809433.5005 702778646930.00012
decision_type=2 2 2 2 2 2 2 2 2 2 2 2 2 2 2 2 2 2 2 2 2 2 2 2 2 2 2 2 2 2
left_child=3 2 14 15 8 6 13 20 -5 19 25 12 -6 22 -2 -1 29 -8 -15 -9 -4 -14 -3 28 -11 27 -27 -7 -13 -17
right_child=1 5 7 4 11 10 17 9 -10 24 -12 23 21 18 -16 16 -18 -19 -20 -21 -22 -23 -24 -25 -26 26 -28 -29 -30 -31
leaf_value=-1.1171404029467531 -1.0896065452557095 -1.0985760496945596 -1.1126911066590606 -1.095409312036161 -1.098572846024725 -1.0914111295770861 -1.0935983318961155 -1.1081575540445869 -1.1137760011115829 -1.1028892791705873 -1.0673598252792302 -1.0978300981799369 -1.1131470217590795 -1.1076672903942666 -1.0647137092438097 -1.0983607971875102 -1.1098905929028684 -1.1142533587365515 -1.0987066423200595 -1.0890819808054231 -1.1060584743774187 -1.1058198673071948 -1.0897322192409973 -1.1136011619716277 -1.0970536143884753 -1.1006183135983061 -1.0899588509417906 -1.0854842202715045 -1.114408793488302 -1.1160842754249543
leaf_weight=4553.9814295619726 1405.8844923973083 3553.0365396291018 3501.9984456896782 343.61910864710808 1515.6257420033216 1766.7032517492771 6479.7814503312111 3805.4227184504271 7508.2083908468485 1368.4939473867416 155.35771451890469 3459.1862716525793 708.92473340034485 1823.1629747152328 112.73249320685863 70.107271894812584 4285.143410935998 134.04510386288166 1049.1786929965019 142.27102376520634 899.05565477907658 3298.2199753820896 417.09152959287167 122.64098763465881 1501.9781930744648 939.25049066543579 1893.8311047852039 957.38490499556065 80.576624497771263 3599.2138627171516
leaf_count=24359 7520 19005 18732 1838 8107 9450 34660 20355 40161 7320 831 18503 3792 9752 603 375 22921 717 5612 761 4809 17642 2231 656 8034 5024 10130 5121 431 19252
internal_value=-1.10445 -1.09911 -1.10474 -1.11021 -1.10725 -1.09536 -1.0973 -1.10703 -1.11297 -1.10426 -1.0908 -1.10236 -1.10477 -1.10048 -1.08776 -1.11425 -1.11259 -1.09402 -1.10439 -1.10747 -1.11134 -1.10712 -1.09765 -1.09872 -1.09984 -1.09145 -1.09349 -1.08933 -1.09821 -1.11575
internal_weight=0 31906.7 12737.8 29545.4 17037 19168.8 13456.3 11219.2 7851.83 6818.17 5712.53 9185.17 5522.77 6842.47 1518.62 12508.4 7954.46 6613.83 2872.34 3947.69 4401.05 4007.14 3970.13 3662.4 2870.47 5557.17 2833.08 2724.09 3539.76 3669.32
internal_count=328704 170667 68134 158037 91130 102533 71977 60011 41999 36470 30556 49131 29541 36600 8123 66907 42548 35377 15364 21116 23541 21434 21236 19590 15354 29725 15154 14571 18934 19627
is_linear=0
shrinkage=1


Tree=1
num_leaves=31
num_cat=0
split_feature=2 1 1 2 1 2 10 1 0 1 0 1 1 1 0 4 1 9 1 7 1 3 9 8 1 0 1 3 1 1
split_gain=18554.6 6540.63 4836.62 3493.16 4694.59 1639.28 1405.2 1361.72 1091.47 900.743 832.752 786.652 785.53 739.593 611.664 596.542 672.607 546.007 523.39 460.542 401.503 282.221 274.918 271.84 231.493 688.99 213.532 211.955 233.417 211.821
threshold=21.500000000000004 1119808876872.0002 702778646930.00012 18.500000000000004 1687824514253.0002 26.500000000000004 23.500000000000004 4363500795995.5005 4226366.5000000009 1119808869562.5002 4354032.5000000009 4363500800431.0005 2627809358204.0005 3985955692129.0005 4352582.5000000009 16.500000000000004 1119808877208.5002 3742.0000000000005 4363500793984.0005 122.50000000000001 1119808871630.0002 32.500000000000007 3742.0000000000005 20.500000000000004 3704300934221.5005 4333585.0000000009 702778646930.00012 17.500000000000004 2627809358204.0005 4363500809433.5005
decision_type=2 2 2 2 2 2 2 2 2 2 2 2 2 2 2 2 2 2 2 2 2 2 2 2 2 2 2 2 2 2
left_child=3 2 14 15 8 7 20 13 -5 19 24 12 -6 21 -2 -1 26 -9 -15 -8 -4 -3 29 -22 -7 -26 -17 -18 -29 -13
right_child=1 5 6 4 11 10 9 17 -10 -11 -12 22 -14 18 -16 16 27 -19 -20 -21 23 -23 -24 -25 25 -27 -28 28 -30 -31
leaf_value=-0.012648923772044992 0.014581744858776818 0.0057937972884349086 -0.0077494316103738897 0.0094674460472496686 0.0057969505470184101 0.014853273980616746 -0.0032088561169831276 0.010680492356647845 -0.0092557843898587698 0.0058927870941543198 0.036043505527296869 0.006527662691153199 -0.0026473420200856159 -0.0031945751581020742 0.03856519147174324 0.0060056193047306203 -0.0079967784583355756 -0.0097579436660688874 0.0056652642846634332 0.015126111654597577 -0.0080216992350857393 0.014459156582485082 -0.0091060347374029033 0.00050008780202404426 0.0037818058914612248 0.014238054023743861 -0.011590369550565286 0.0050672739655893547 -0.0046009186532620164 -0.0099133744806035821
leaf_weight=4524.9058520495892 1416.3417387008667 3563.5020688176155 4003.1891145706177 324.84943276643753 1520.092459321022 2744.7286572754383 2999.5057332515717 6515.0318506360054 7493.3165231347084 2272.3454405516386 158.23725070059299 3470.6692993491888 4001.7671079933643 1820.2121855020523 114.97024422883987 70.32134011387825 1815.3779448419809 133.38413000106812 1052.2003265619278 143.55278347432613 533.97053951025009 420.1677420437336 122.07650136947632 1252.0519829243422 941.05492401123047 1907.5840465724468 3578.1484732031822 282.08553256094456 2175.9552217572927 80.172995895147324
leaf_count=24359 7520 19005 21483 1730 8107 14571 16077 34660 40269 12126 831 18503 21434 9752 603 375 9737 717 5612 762 2861 2231 656 6702 5024 10130 19252 1513 11671 431
internal_value=0 0.0052727 -0.000287079 -0.0057264 -0.00278107 0.00894992 -0.00256526 0.00704579 -0.00847782 0.00109629 0.0134207 0.00206278 -0.000322744 0.00391881 0.0163824 -0.00975224 -0.00809768 0.0102704 5.08939e-05 -0.00237144 -0.00599039 0.00670775 0.00564917 -0.00204769 0.0127807 0.0107838 -0.0112512 -0.00540531 -0.00349139 0.00615645
internal_weight=0 31992 12735.9 29459.7 17012.9 19256.1 11204.6 13504.5 7818.17 5415.4 5751.6 9194.78 5521.86 6856.08 1531.31 12446.8 7921.89 6648.42 2872.41 3143.06 5789.21 3983.67 3672.92 1786.02 5593.37 2848.64 3648.47 4273.42 2458.04 3550.84
internal_count=328704 170667 68134 158037 91130 102533 60011 71977 41999 28965 30556 49131 29541 36600 8123 66907 42548 35377 15364 16839 31046 21236 19590 9563 29725 15154 19627 22921 13184 18934
is_linear=0
shrinkage=0.01


Tree=2
num_leaves=31
num_cat=0
split_feature=2 1 1 2 1 2 10 1 1 1 0 1 1 1 4 1 0 9 1 12 1 5 5 14 8 1 0 1 1 3
split_gain=18190.2 6366.1 4708.67 3455.65 4622.83 1583.38 1382.46 1320.56 1075.34 880.781 791.969 768.143 768.806 721.01 593.895 667.648 579.75 532.187 512.327 434.341 396.684 309.442 283.79 270.123 267.731 222.612 665.688 214.933 211.088 209.529
threshold=21.500000000000004 1119808876872.0002 702778646930.00012 18.500000000000004 1687824514253.0002 26.500000000000004 23.500000000000004 4363500795995.5005 702778646930.00012 1119808869562.5002 4354032.5000000009 4363500800431.0005 2627809358204.0005 3985955692129.0005 16.500000000000004 1119808877208.5002 4352582.5000000009 3742.0000000000005 4363500793984.0005 6.4763930804583039 1119808871630.0002 18.500000000000004 33.500000000000007 30.840485363222328 20.500000000000004 3704300934221.5005 4333585.0000000009 4363500809433.5005 702778646930.00012 17.500000000000004
decision_type=2 2 2 2 2 2 2 2 2 2 2 2 2 2 2 2 2 2 2 2 2 2 2 2 2 2 2 2 2 2
left_child=3 2 16 14 8 7 20 13 -5 19 25 12 -6 22 -1 28 -2 -9 -15 -8 -4 -14 -3 -13 -22 -7 -27 -25 -16 -17
right_child=1 5 6 4 11 10 9 17 -10 -11 -12 23 21 18 15 29 -18 -19 -20 -21 24 -23 -24 27 -26 26 -28 -29 -30 -31
leaf_value=-0.012603768135527313 0.014331818481110795 0.0055234063473948696 -0.0077022352452015457 0.0087887314708114707 0.0057223240459262671 0.014596761629407526 0.014634101855582017 0.010517526533461443 -0.0092317306405495375 0.0058166322330645403 0.035066301810040321 -0.0015801360682268742 -0.0086374547763587092 -0.0031677505565649152 0.0059276894285674063 -0.0079490527212415438 0.037476059120600695 -0.0097085803068881101 0.0055926989666906599 -0.0031651977414125765 -0.007973876577231075 -0.0013366980092165759 0.013102501015126696 0.0070016789111397495 0.00049496219773462495 0.0037368786395980663 0.013996365736635583 -0.010070488901761388 -0.011542659056908929 -0.0034626339873349912
leaf_weight=4495.8516902029514 1426.5782332420349 3419.5246230363846 3987.5207922011614 346.56971982121468 1524.4950298666954 2764.9300117939711 143.6712151914835 6549.6444052457809 7438.0224206149578 2279.0413251370192 161.00617074966431 461.30403004586697 704.87901735305786 1817.2840656042099 70.532301440834999 1808.0513485819101 117.11733256280422 132.72501517832279 1055.1789767146111 2995.6131128817797 531.81211131811142 3291.5558080375195 577.47185830771923 3146.4475762844086 1252.3667056113482 942.83622455596924 1921.0501857101917 75.513572931289673 3557.1146401762962 2453.7104966342449
leaf_count=24359 7520 18175 21483 1838 8107 14571 757 34660 40161 12126 831 2462 3792 9752 375 9737 603 717 5612 16082 2861 17642 3061 16720 6702 5024 10130 408 19252 13184
internal_value=0 0.00520617 -0.000284431 -0.00568587 -0.00275731 0.00882095 -0.00254302 0.00695078 -0.00842946 0.00108468 0.0131983 0.00203999 -0.000319606 0.00387197 -0.00970296 -0.00804991 0.0160877 0.0101158 5.03386e-05 -0.0023506 -0.0059486 -0.00262438 0.00661841 0.00557685 -0.00202935 0.0125728 0.0106188 0.00660156 -0.011203 -0.005366
internal_weight=0 32075.4 12733.7 29374 16988.8 19341.7 11190 13551.8 7784.59 5418.33 5789.82 9204.2 5520.93 6869.46 12385.3 7889.41 1543.7 6682.37 2872.46 3139.28 5771.7 3996.43 3997 3683.27 1784.18 5628.82 2863.89 3221.96 3627.65 4261.76
internal_count=328704 170667 68134 158037 91130 102533 60011 71977 41999 28965 30556 49131 29541 36600 66907 42548 8123 35377 15364 16839 31046 21434 21236 19590 9563 29725 15154 17128 19627 22921
is_linear=0
shrinkage=0.01


Tree=3
num_leaves=31
num_cat=0
split_feature=2 1 1 2 1 2 10 1 1 1 0 1 1 1 4 1 0 12 1 6 1 5 5 12 1 0 1 3 1 3
split_gain=17833.7 6197.14 4585.18 3418.55 4552.19 1530.06 1360.08 1280.95 1058.75 861.3 754.437 750.121 752.467 702.956 591.321 662.769 550.598 518.81 501.514 431.189 391.919 305.246 274.682 264.23 214.429 691.354 208.684 207.134 229.524 206
threshold=21.500000000000004 1119808876872.0002 702778646930.00012 18.500000000000004 1687824514253.0002 26.500000000000004 23.500000000000004 4363500795995.5005 702778646930.00012 1119808869562.5002 4354032.5000000009 4363500800431.0005 2627809358204.0005 3985955692129.0005 16.500000000000004 1119808877208.5002 4352582.5000000009 7.8877207735775388 4363500793984.0005 121.50000000000001 1119808871630.0002 18.500000000000004 33.500000000000007 7.8877207735775388 3985955692129.0005 4333585.0000000009 702778646930.00012 17.500000000000004 2627809358204.0005 34.500000000000007
decision_type=2 2 2 2 2 2 2 2 2 2 2 2 2 2 2 2 2 2 2 2 2 2 2 2 2 2 2 2 2 2
left_child=3 2 16 14 8 7 20 13 -5 19 24 12 -6 22 -1 26 -2 -9 -15 -8 -4 -14 -3 -13 29 -26 -16 -17 -29 -7
right_child=1 5 6 4 11 10 9 17 -10 -11 -12 23 21 18 15 27 -18 -19 -20 -21 -22 -23 -24 -25 25 -27 -28 28 -30 -31
leaf_value=-0.01255922431070898 0.014089035760021643 0.0054531254319400277 -0.0076553115243832761 0.0086629541608994731 0.0056489385799668116 0.01243113672350709 -0.0031128438305056535 -0.009659561723340232 -0.0091828307930271989 0.0057417555247320853 0.034148296363839654 -0.0089790386640409402 -0.0085888749817066741 -0.0031411212504967707 0.0058510784670817396 -0.0079016078515209507 0.036457095730937653 0.010358327929782455 0.0055213302042043857 0.0152349664669296 -0.002011180470983484 -0.0013242269819657359 0.012887557879096827 0.0059996405740820108 0.0030822480608883062 0.013761468557702324 -0.011495433517545801 0.0050471387716013024 -0.0045389180859412336 0.018166001221180988
leaf_weight=4466.8247516602278 1436.5983462333679 3428.9126329123974 3971.9211581945419 348.07792797684669 1528.8345408737659 1915.7487213909626 3001.7306938320398 132.06785555183887 7403.0302082300186 2285.6407539844513 163.66744655370712 121.78599700331688 701.79281616210938 1814.3781790733337 70.74020616710186 1800.7553668618202 119.17621122300625 6583.6309930682182 1058.1151452064514 133.79417841136456 1782.3408472836018 3289.3394137620926 581.21304471790791 3571.6709231287241 882.92529308795929 1934.2354092001915 3536.1160930395126 282.31371513009071 2167.0999984294176 930.62087459862232
leaf_count=24359 7520 18175 21483 1838 8107 10032 16139 717 40161 12126 831 658 3792 9752 375 9737 603 34660 5612 700 9563 17642 3061 18932 4696 10130 19252 1513 11671 4867
internal_value=0 0.00514084 -0.00028181 -0.00564568 -0.00273378 0.00869477 -0.00252097 0.00685757 -0.00838143 0.0010732 0.012982 0.0020175 -0.000316515 0.00382583 -0.00965408 -0.00800246 0.0158025 0.00996467 4.97899e-05 -0.00232993 -0.00590708 -0.00260163 0.00653065 0.00550574 0.0123704 0.0104145 -0.0111552 -0.00532691 -0.00343405 0.0143062
internal_weight=0 32156.7 12731.2 29288.4 16964.5 19425.5 11175.4 13598.3 7751.11 5421.17 5827.2 9213.42 5519.97 6882.62 12323.9 7857.03 1555.77 6715.7 2872.49 3135.52 5754.26 3991.13 4010.13 3693.46 5663.53 2817.16 3606.86 4250.17 2449.41 2846.37
internal_count=328704 170667 68134 158037 91130 102533 60011 71977 41999 28965 30556 49131 29541 36600 66907 42548 8123 35377 15364 16839 31046 21434 21236 19590 29725 14826 19627 22921 13184 14899
is_linear=0
shrinkage=0.01


Tree=4
num_leaves=31
num_cat=0
split_feature=2 1 1 2 1 2 11 1 0 1 1 1 0 1 4 1 0 9 1 7 1 3 9 9 7 1 0 1 3 1
split_gain=17485.1 6033.54 4465.93 3381.89 4482.67 1479.15 1280.07 1242.82 1042.76 893.73 732.567 736.501 719.821 685.418 588.811 657.959 523.902 505.855 490.945 452.826 304.203 265.413 260.361 224.819 208.213 206.433 668.699 206.317 204.762 225.293
threshold=21.500000000000004 1119808876872.0002 702778646930.00012 18.500000000000004 1687824514253.0002 26.500000000000004 22.500000000000004 4363500795995.5005 4226366.5000000009 1119808869562.5002 4363500800431.0005 2627809358204.0005 4354032.5000000009 3985955692129.0005 16.500000000000004 1119808877208.5002 4352582.5000000009 3742.0000000000005 4363500793984.0005 122.50000000000001 1119808873443.0002 32.500000000000007 3742.0000000000005 24.500000000000004 18.500000000000004 3985955692129.0005 4333585.0000000009 702778646930.00012 17.500000000000004 2627809358204.0005
decision_type=2 2 2 2 2 2 2 2 2 2 2 2 2 2 2 2 2 2 2 2 2 2 2 2 2 2 2 2 2 2
left_child=3 2 16 14 8 7 20 13 -5 19 11 -6 25 21 -1 27 -2 -9 -15 -8 -4 -3 -12 -11 -13 -7 -27 -16 -17 -30
right_child=1 5 6 4 10 12 9 17 -10 23 22 24 -14 18 15 28 -18 -19 -20 -21 -22 -23 -24 -25 -26 26 -28 -29 29 -31
leaf_value=-0.012515279789997525 0.01385308376806213 0.0055593180033358357 -0.0080843647665739971 0.0090827204290755033 0.0055767681279581295 0.014065105876574112 -0.0035741846503226761 0.010202763427762315 -0.0091095102011581729 0.0014901910244508054 0.0059227949183787466 -0.0072969698050879741 0.033284241452829329 -0.0031146848009414125 0.0057757541170058262 -0.0078544381859689399 0.035501727712020897 -0.0096108815909124439 0.0054511299342564238 0.014349224426954743 -0.0015443020879898574 0.013897921549971232 -0.0090000427063627944 0.007073468003646801 -0.0014718288282620784 0.0030467270152681057 0.013533067929294816 -0.011448682778191702 0.0049839427478732745 -0.0045039560572317627
leaf_weight=4437.8293921500444 1446.406672000885 3596.0050678104162 3453.4122108966112 329.1090250313282 1533.111958771944 2866.0948928296566 3773.081470027566 6617.0040094852448 7388.6090112775564 1372.6672668457031 3582.6447852998972 757.62099692225456 166.22392617166042 1811.4948165416718 70.945098996162415 1793.4905800521374 121.14930626749992 131.41271522641182 1061.0095846652985 146.42837142944336 895.67355218529701 427.04191945493221 120.86007046699524 1519.5876677781343 3228.2399375736713 884.27981567382812 1947.145604044199 3515.1554136872292 283.03088611364365 2162.1082180142403
leaf_count=24359 7520 19005 18732 1730 8107 14899 20355 34660 40269 7320 18934 4093 831 9752 375 9737 603 717 5612 761 4809 2231 656 8034 17341 4696 10130 19252 1513 11671
internal_value=0 0.00507667 -0.00027921 -0.0056058 -0.00271047 0.00857128 -0.0024991 0.00676611 -0.00833373 0.000206956 0.0019953 -0.000313454 0.0127716 0.00378038 -0.00960559 -0.00795535 0.0155262 0.00981693 4.92482e-05 -0.00290459 -0.00673747 0.00644445 0.0054358 0.00442364 -0.00257905 0.0121732 0.0102581 -0.0111079 -0.0052881 -0.00340571
internal_weight=0 32236.1 12728.4 29202.8 16940.2 19507.7 11160.9 13644 7717.72 6811.76 9222.48 5518.97 5863.74 6895.55 12262.6 7824.73 1567.56 6748.42 2872.5 3919.51 4349.09 4023.05 3703.5 2892.25 3985.86 5697.52 2831.43 3586.1 4238.63 2445.14
internal_count=328704 170667 68134 158037 91130 102533 60011 71977 41999 36470 49131 29541 30556 36600 66907 42548 8123 35377 15364 21116 23541 21236 19590 15354 21434 29725 14826 19627 22921 13184
is_linear=0
shrinkage=0.01


Tree=5
num_leaves=31
num_cat=0
split_feature=3 1 1 1 3 11 3 1 1 1 1 1 0 1 4 0 0 12 7 7 1 7 14 1 9 1 1 4 4 3
split_gain=16041 5680.82 4264.65 3367.03 4083.21 1247.81 1236.84 1269.56 1064.86 875.41 782.499 928.128 697.06 559.681 527.628 515.047 462.705 431.035 371.762 352.699 317.997 311.021 295.071 320.227 281.804 309.717 266.816 807.859 236.53 211.354
threshold=21.500000000000004 1119808876872.0002 702778646930.00012 2384994534164.0005 17.500000000000004 22.500000000000004 26.500000000000004 4363500795995.5005 702778646930.00012 1119808869562.5002 4363500802198.0005 3985955692129.0005 4354032.5000000009 3985955692129.0005 18.500000000000004 4352582.5000000009 4348916.5000000009 8.7310607911602762 122.50000000000001 16.500000000000004 1119808873443.0002 16.500000000000004 30.840485363222328 4363500809332.5005 19.500000000000004 1687824514253.0002 3985955692129.0005 4095.0000000000005 32.500000000000007 32.500000000000007
decision_type=2 2 2 2 2 2 2 2 2 2 2 2 2 2 2 2 2 2 2 2 2 2 2 2 2 2 2 2 2 2
left_child=3 2 15 8 19 20 7 13 21 18 11 -6 26 28 -13 -2 -15 -9 -7 -5 -4 -1 -12 -24 -10 -26 29 -28 -3 -8
right_child=1 6 5 4 10 9 12 17 24 -11 22 14 -14 16 -16 -17 -18 -19 -20 -21 -22 -23 23 -25 25 -27 27 -29 -30 -31
leaf_value=-0.01118990470157882 0.013304386958167397 0.0050638314018050584 -0.0082041640103730357 -0.012125443566497612 0.0051433255953536499 -0.0036674683039756672 0.01045257950811092 -0.0083400076761520787 -0.011369647430124781 0.0042118871647937343 -0.0021070003193035531 -0.0083460806435120393 0.031858778410413895 -0.0033550060021790436 -0.0011773676671375261 0.034604200551816462 0.0048297461439297338 0.0099407876906559695 0.01069488814299931 -0.0067750547105350292 -0.0014509220193407635 0.0088112619532902201 0.0065604183809398944 -0.010240460603361184 -0.0087186962962490268 0.0047152481926189919 0.011140546972988956 -0.0049189741421950348 0.01314630847602921 0.015768632974945462
leaf_weight=96.029106453061104 1468.3166867792606 3527.3732686638832 3374.3816196769476 2893.3276560753584 1914.4154446870089 3788.2438031584024 1335.4902078509331 131.55185653269291 6011.6379171013832 2940.1597660928965 533.84708309173584 1358.9454060196877 170.36092835664749 1652.1876315325499 4199.4566642642021 123.03891795873642 1186.8943494707346 6597.5338424444199 189.22692966461182 2145.8178731501102 878.871591553092 408.35361675918102 3034.9145102202892 117.85282890498638 6109.3835553377867 176.57627694308758 2607.3965527415276 356.0027981698513 403.49103908240795 1699.7489224523306
leaf_count=526 7595 18563 18399 15918 10129 20491 6940 716 33016 15611 2859 7356 842 8891 22460 603 6283 34462 993 11686 4740 2135 16040 641 33420 932 13640 1889 2110 8818
internal_value=0 0.0048312 -0.000364538 -0.00540479 -0.00237564 -0.00254636 0.00820262 0.00650738 -0.00923763 7.43199e-05 0.000998161 -0.000861751 0.0119122 0.00344992 -0.00293001 0.0149512 6.66761e-05 0.0095834 -0.00298418 -0.00984709 -0.00680871 0.00500325 0.00476823 0.00593239 -0.00982171 -0.00834133 0.0113457 0.00921126 0.00589347 0.0134296
internal_weight=0 32430.3 12762.2 29000.6 16198.6 11170.9 19668 13499 12802 6917.63 11159.4 7472.82 6169 6769.95 5558.4 1591.36 2839.08 6729.09 3977.47 5039.15 4253.25 504.383 3686.61 3152.77 12297.6 6285.96 5998.64 2963.4 3930.86 3035.24
internal_count=328704 171586 68432 157118 87089 60234 103154 71025 70029 37095 59485 39945 32129 35847 29816 8198 15174 35178 21484 27604 23139 2661 19540 16681 67368 34352 31287 15529 20673 15758
is_linear=0
shrinkage=0.01


Tree=6
num_leaves=31
num_cat=0
split_feature=2 1 1 2 1 2 10 1 1 1 1 1 0 1 2 1 9 0 1 7 1 5 5 9 9 1 5 1 0 12
split_gain=16870 5727.44 4240.37 3317.16 4347.92 1400.9 1308.74 1180.27 1010.25 810.638 706.393 707.887 657.156 652.307 562.09 682.556 483.738 476.266 474.179 410.306 380.56 296.01 257.083 252.208 251.979 198.45 198.012 193.669 592.358 195.819
threshold=21.500000000000004 1119808876872.0002 702778646930.00012 18.500000000000004 1687824514253.0002 26.500000000000004 23.500000000000004 4363500795995.5005 702778646930.00012 1119808869562.5002 4363500800431.0005 2627809358204.0005 4354032.5000000009 3985955692129.0005 16.500000000000004 1119808877208.5002 3742.0000000000005 4352582.5000000009 4363500793984.0005 122.50000000000001 1119808871630.0002 18.500000000000004 33.500000000000007 20.500000000000004 3742.0000000000005 4363500809433.5005 30.500000000000004 3704300934221.5005 4333585.0000000009 31.773760685749867
decision_type=2 2 2 2 2 2 2 2 2 2 2 2 2 2 2 2 2 2 2 2 2 2 2 2 2 2 2 2 2 2
left_child=3 2 17 14 8 7 20 13 -5 19 11 -6 27 22 -1 -16 -9 26 -15 -8 -4 -13 -3 -22 25 -12 -2 29 -29 -7
right_child=1 5 6 4 10 12 9 16 -10 -11 24 21 -14 18 15 -17 -18 -19 -20 -21 23 -23 -24 -25 -26 -27 -28 28 -30 -31
leaf_value=-0.01219863115136933 0.010462791791960049 0.0052293789150836528 -0.0075284669905324956 0.0082901825265775751 0.0054313493357147401 0.015167465280197403 -0.0030604927462161025 0.0099206739755020815 -0.0090410249293705353 0.0055729529276206946 0.0061442253914531413 -0.0084799473631434683 0.031731370436705084 -0.0030789395638976158 -0.011047215074191673 -0.0049551385041752419 -0.0095314496978817151 0.033759417953289551 0.0053302510125452082 0.013983792328610536 -0.00729560325713546 -0.0012956277524123134 0.012369599072361862 0.00070574696138792125 -0.0089334044139042518 -0.0098319471236479779 0.017994968396690417 0.003543864291710731 0.013156943594975141 0.0090061073410601742
leaf_weight=4760.6842340230942 891.1866699308157 3458.8993917554617 3929.5714655518532 352.57737001776695 1541.7535518407822 2159.4024093002081 2972.7926195710897 6677.9024013578892 7300.9288701117039 2300.5445188432932 3521.0957995504141 694.83644142746925 170.93635775148869 1807.5867559462786 3442.637684494257 3948.4126200526953 130.33800648152828 124.84731960296631 1066.0060156881809 148.28236339986324 589.75321842730045 3284.2417742460966 590.31447342038155 1186.4927675426006 120.09104616940022 79.506728142499924 573.70426152646542 950.49963212013245 1968.5866178721189 677.71143190562725
leaf_count=26378 4575 18175 21483 1838 8107 11082 16077 34660 40161 12126 18503 3792 831 9752 19057 21472 717 603 5612 762 3196 17642 3061 6367 656 431 2945 5024 10130 3489
internal_value=0 0.00496281 -0.000266558 -0.00553414 -0.00266816 0.00834577 -0.00244915 0.00659188 -0.00824262 0.00106908 0.00194842 -0.000321243 0.0124089 0.00368441 -0.00951883 -0.00779273 0.00954828 0.0150106 4.05866e-05 -0.00225072 -0.00579214 -0.00255017 0.00627032 -0.00195088 0.00531618 0.00579145 0.0134127 0.0118351 0.0100268 0.0136957
internal_weight=0 32375.4 12717.2 29046.8 16895 19658.2 11127.4 13731 7653.51 5421.62 9241.53 5520.83 5927.14 6922.81 12151.7 7391.05 6808.24 1589.74 2873.59 3121.07 5705.82 3979.08 4049.21 1776.25 3720.69 3600.6 1464.89 5756.2 2919.09 2837.11
internal_count=328704 170667 68134 158037 91130 102533 60011 71977 41999 28965 49131 29541 30556 36600 66907 40529 35377 8123 15364 16839 31046 21434 21236 9563 19590 18934 7520 29725 15154 14571
is_linear=0
shrinkage=0.01


Tree=7
num_leaves=31
num_cat=0
split_feature=2 1 1 2 1 2 10 1 1 1 1 1 1 0 4 1 9 1 0 7 5 1 5 14 1 1 10 4 1 12
split_gain=16542.1 5578.42 4132.61 3281.53 4281.62 1355.78 1291.42 1145.88 994.849 923.354 689.985 692.944 636.21 629.664 582.892 643.157 471.881 464.228 455.503 430.817 291.995 253.365 249.123 247.574 202.658 201.193 200.293 194.985 193.761 224.193
threshold=21.500000000000004 1119808876872.0002 702778646930.00012 18.500000000000004 1687824514253.0002 26.500000000000004 22.500000000000004 4363500795995.5005 702778646930.00012 1119808869562.5002 4363500800431.0005 2627809358204.0005 3985955692129.0005 4354032.5000000009 16.500000000000004 1119808877208.5002 3742.0000000000005 4363500793984.0005 4352582.5000000009 122.50000000000001 18.500000000000004 1119808873607.5002 33.500000000000007 30.840485363222328 702778646930.00012 4363500809433.5005 25.500000000000004 32.500000000000007 3985955695256.5005 53.734731531230274
decision_type=2 2 2 2 2 2 2 2 2 2 2 2 2 2 2 2 2 2 2 2 2 2 2 2 2 2 2 2 2 2
left_child=3 2 18 14 8 7 21 12 -5 19 11 -6 22 -7 -1 24 -9 -14 27 -8 -13 -4 -3 -12 -16 -25 -11 -2 29 -17
right_child=1 5 6 4 10 13 9 16 -10 26 23 20 17 -15 15 28 -18 -19 -20 -21 -22 -23 -24 25 -26 -27 -28 -29 -30 -31
leaf_value=-0.012396306498955121 0.01055820794874893 0.0051638343458565265 -0.0079574085051103711 0.0081744708338037982 0.0053627266734690149 0.011651469387239962 -0.0035681114791352307 0.0097748699682924621 -0.0089933307226540814 0.0023736905388704434 -0.0016042511611711445 -0.0084323141644669433 -0.0030529552973080111 0.03100161291436359 0.0057483069913872569 0.0040223070056394352 -0.0094836289816673542 0.00526314042780591 0.032962878616587685 0.013753191225039423 -0.0012835161371770173 -0.001780768772547312 0.012173703977265684 0.0065975797327505054 -0.011316893893804412 -0.0099877403591514518 0.0077129079711230307 0.018211357337425096 -0.0060191687012585843 -0.010609207844965187
leaf_weight=4357.5015543848276 966.19031994044781 3467.7304544448853 3425.8991062194109 353.98536196351051 1545.8465567082167 5788.2699030190706 3784.3282909542322 6709.5753130614758 7266.4245563596487 1760.3361809402704 461.81507642567158 691.78919045627117 1804.7558006048203 173.198869779706 71.019398108124733 414.40083399415016 129.6885422617197 1068.7886243015528 126.57668566703796 149.25597821176052 3282.0911353975534 823.81073617935181 593.79777121543884 3193.6287909150124 3455.1636921912432 74.855964049696922 1169.311121314764 507.9086929410696 3652.7529360502958 140.13776625692844
leaf_count=24359 4932 18175 18790 1838 8107 29725 20546 34660 40161 9336 2462 3792 9752 831 375 2229 717 5612 603 762 17642 4441 3061 16720 19252 408 6136 2588 19926 766
internal_value=0 0.00490177 -0.000264118 -0.00549514 -0.00264546 0.00822958 -0.00242791 0.0065053 -0.00819585 0.000254563 0.00192709 -0.00031814 0.00364104 0.0122137 -0.00947127 -0.00782312 0.00940968 4.01406e-05 0.0147583 -0.00291087 -0.00252801 -0.00676006 0.00618868 0.00524937 -0.0109732 0.00621774 0.00450473 0.0131951 -0.00518301 0.000324769
internal_weight=0 32449.4 12713.6 28961.4 16870.4 19735.8 11112.9 13774.3 7620.41 6863.23 9250.03 5519.73 6935.07 5961.47 12091 7733.47 6839.26 2873.54 1600.68 3933.58 3973.88 4249.71 4061.53 3730.3 3526.18 3268.48 2929.65 1474.1 4207.29 554.539
internal_count=328704 170667 68134 158037 91130 102533 60011 71977 41999 36780 49131 29541 36600 30556 66907 42548 35377 15364 8123 21308 21434 23231 21236 19590 19627 17128 15472 7520 22921 2995
is_linear=0
shrinkage=0.01


Tree=8
num_leaves=31
num_cat=0
split_feature=2 1 1 2 1 2 11 1 1 1 1 0 7 1 12 0 0 0 1 2 5 0 8 4 2 4 3 1 14 1
split_gain=16225.7 7121.22 4716.52 2152.29 3174.23 1715.54 1525.7 1155.69 819.176 727.632 617.558 585.556 496.801 477.288 474.991 452.51 444.446 1067.52 349.855 313.936 282.64 264.149 242.575 237.108 213.807 211.169 209.725 207.323 225.427 191.142
threshold=20.500000000000004 1119808876872.0002 702778646930.00012 17.500000000000004 1119808876872.0002 25.500000000000004 22.500000000000004 4363500798102.0005 1119808869562.5002 702778646930.00012 4363500802198.0005 4354032.5000000009 122.50000000000001 3985955692129.0005 7.8877207735775388 4352582.5000000009 4226366.5000000009 4266635.0000000009 1119808871630.0002 22.500000000000004 18.500000000000004 4226210.0000000009 20.500000000000004 16.500000000000004 109.50000000000001 32.500000000000007 32.500000000000007 4363500809332.5005 30.840485363222328 4363500809010.5005
decision_type=2 2 2 2 2 2 2 2 2 2 2 2 2 2 2 2 2 2 2 2 2 2 2 2 2 2 2 2 2 2
left_child=3 2 15 23 9 7 18 16 12 -5 13 -7 -8 26 -9 25 21 -18 -4 -10 -15 -3 -20 -1 -13 -2 -6 28 -12 -16
right_child=1 5 6 4 10 11 8 14 19 -11 27 24 -14 20 29 -17 17 -19 22 -21 -22 -23 -24 -25 -26 -27 -28 -29 -30 -31
leaf_value=-0.012476888081586802 0.01013736187941848 0.0027559635772353235 -0.0087487490158847034 0.0068954263080544791 0.001284490508443365 0.010894923323324802 -0.0039124431197253215 -0.0085349789269242929 -0.0026302273769515088 -0.010130681344435417 -0.002293033619686244 -0.0025108804777988743 0.012864328400361063 -0.0080027531123867401 0.0094372945668481593 0.032210576167730223 -0.0072683361308241755 0.0036683002417029625 -0.007827384659998762 0.005103648700136112 -0.0022603071540890345 0.0085201533048935921 -0.00050917262609228274 -0.0090018821572763318 0.032786608431307464 0.017795561574021269 0.013403625749038051 -0.0094056681152406511 0.0055051029514365047 -0.0021204959612154371
leaf_weight=4218.5050330907106 1078.009757861495 1360.1901479512453 4093.6541661322117 260.97280023992062 1394.3775644153357 7567.548881188035 4097.1205387562513 155.21258695423603 662.0268345028162 6571.1671416461468 446.71560257673264 19.186398640275002 184.45523637533188 1226.3231030404568 6209.025115609169 128.22916366159916 1115.1883642226458 4469.6025812625885 770.82865625619888 2533.3043026030064 2846.9308195561171 1913.3117355555296 1098.2728014439344 3673.2401171326637 162.5351337492466 540.63873748481274 159.08398427069187 117.38205018639565 2178.491631552577 146.46429014205933
leaf_count=23741 5486 7153 22628 1354 7406 38829 22322 858 3573 36599 2402 95 951 6710 32071 603 6010 23511 4235 13341 15306 10005 5955 20327 770 2735 836 644 11487 761
internal_value=0 0.00398993 -0.00132991 -0.00662238 -0.00442274 0.00748457 -0.00333909 0.00555025 -0.000330223 -0.00948032 -0.000294063 0.0113209 -0.00318968 -0.00219054 0.00874884 0.0141278 0.00319933 0.00148444 -0.007112 0.0035013 -0.00398917 0.00612504 -0.00352725 -0.0108594 0.0290599 0.0126952 0.00252556 0.00359676 0.00417814 0.00917094
internal_weight=0 38304.8 15186.5 23093.2 15201.4 23118.3 13439.7 15369 7476.91 6832.14 8369.3 7749.27 4281.58 5626.72 6510.7 1746.88 8858.29 5584.79 5962.76 3195.33 4073.25 3273.5 1869.1 7891.75 181.722 1618.65 1553.46 2742.59 2625.21 6355.49
internal_count=328704 201892 81829 126812 82744 120063 73005 80369 40187 37953 44791 39694 23273 30258 33690 8824 46679 29521 32818 16914 22016 17158 10190 44068 865 8221 8242 14533 13889 32832
is_linear=0
shrinkage=0.01


Tree=9
num_leaves=31
num_cat=0
split_feature=2 1 1 2 1 2 10 1 1 1 1 0 1 7 9 4 0 0 2 1 5 0 4 0 10 1 14 3 9 1
split_gain=15927.6 6945.87 4603.44 2134.37 3135.07 1662.71 1570.4 1123.36 884.791 713.922 596.101 563.088 500.397 493.229 463.482 434.184 433.307 1047.47 312.49 303.719 279.098 256.717 236.651 213.291 205.324 203.394 220.137 193.695 188.994 185.876
threshold=20.500000000000004 1119808876872.0002 702778646930.00012 17.500000000000004 1119808877208.5002 25.500000000000004 22.500000000000004 4363500798102.0005 1119808869562.5002 702778646930.00012 4363500802198.0005 4354032.5000000009 3985955692129.0005 122.50000000000001 3742.0000000000005 32.500000000000007 4226366.5000000009 4266635.0000000009 23.500000000000004 1119808873212.5002 18.500000000000004 4226210.0000000009 16.500000000000004 4352582.5000000009 29.500000000000004 4363500809332.5005 30.840485363222328 32.500000000000007 20.500000000000004 4363500809010.5005
decision_type=2 2 2 2 2 2 2 2 2 2 2 2 2 2 2 2 2 2 2 2 2 2 2 2 2 2 2 2 2 2
left_child=3 2 15 22 9 7 19 16 13 -5 12 -7 27 -8 29 -2 21 -18 -10 -4 -14 -3 -1 -17 -13 26 -12 -6 -21 -9
right_child=1 5 6 4 10 11 8 14 18 -11 25 24 20 -15 -16 23 17 -19 -20 28 -22 -23 -24 -25 -26 -27 -28 -29 -30 -31
leaf_value=-0.012436048103120363 0.0099825462266727154 0.0027247150663369172 -0.0084060755110404069 0.0068039373585434184 0.0015660699521007331 0.010730963320232862 -0.0039717179666025285 0.0093011011747861742 -0.00052073511853412721 -0.010032919913265562 -0.0022727526316958131 -0.0042305702008102481 -0.0079559199301274149 0.012685971714969558 -0.008487927272144093 0.017475150098606857 -0.0072224509850129298 0.003625086308748924 0.0059827666140477524 -0.0069080543018349748 -0.0022402788689808773 0.0084001440360671718 -0.0089545266148776254 0.031806188312312286 0.031864399273614522 -0.0093576872376244322 0.0054353015290803429 0.01321331049756138 0.0006705902566587897 -0.0021014374838866038
leaf_weight=4190.1771479994059 1084.5612603276968 1362.0223311185837 4562.3593416959047 261.83277605473995 1330.966239079833 7606.1468322873116 4123.6008629798889 6236.8020479381084 1146.0298009365797 6600.2868876159191 446.19751320779324 17.408697694540024 1221.2321343272924 185.76133798062801 154.51576055586338 545.02361655235291 1111.0713038146496 4477.6146480888128 2079.3281228840351 631.19739799201488 2843.6753240227699 1921.1999115943909 3655.8267519921064 128.2999239563942 166.37060537934303 116.80696806311607 2184.3738400638103 159.93976159393787 687.41095139086246 146.31542660295963
leaf_count=23741 5493 7153 25293 1354 7049 38829 22521 32071 6131 36957 2402 86 6710 952 858 2735 6010 23511 10919 3466 15306 10005 20327 596 779 644 11487 835 3723 761
internal_value=0 0.00394284 -0.00131788 -0.0065797 -0.0043891 0.0073836 -0.0033117 0.00548016 -0.000289043 -0.00939049 -0.000255726 0.0111489 -0.00213991 -0.00325366 0.00862547 0.0138984 0.0031624 0.00146852 0.00367195 -0.00718435 -0.00395745 0.00604573 -0.0108138 0.0202059 0.0284453 0.00355451 0.00412786 0.00281555 -0.00295719 0.00903973
internal_weight=0 38373 15173.6 23011.3 15165.3 23199.5 13415.7 15409.5 7534.72 6862.12 8303.19 7789.93 5555.81 4309.36 6537.63 1757.88 8871.91 5588.69 3225.36 5880.97 4064.91 3283.22 7846 673.324 183.779 2747.38 2630.57 1490.91 1318.61 6383.12
internal_count=328704 201892 81829 126812 82744 120063 73005 80369 40523 38311 44433 39694 29900 23473 33690 8824 46679 29521 17050 32482 22016 17158 44068 3331 865 14533 13889 7884 7189 32832
is_linear=0
shrinkage=0.01


Tree=10
num_leaves=31
num_cat=0
split_feature=2 1 1 2 1 2 11 1 0 1 1 1 1 4 1 0 1 14 1 0 9 12 3 12 9 1 12 3 1 3
split_gain=15640.9 5156.57 3828.61 3178.85 4093.91 1246.8 1185.03 1174.25 950.548 681.573 665.624 651.085 661.351 574.372 632.836 551.882 496.116 488.723 470.941 401.756 310.313 273.414 269.756 247.816 237.098 215.911 417.857 200.798 198.602 193.169
threshold=21.500000000000004 1119808876872.0002 702778646930.00012 18.500000000000004 1687824514253.0002 27.500000000000004 23.500000000000004 4363500795995.5005 4226366.5000000009 3985955692129.0005 1119808867592.0002 4363500800431.0005 2627809358204.0005 16.500000000000004 1119808877208.5002 4354032.5000000009 4363500793984.0005 7.8963205132624479 1119808871630.0002 4352582.5000000009 21.500000000000004 7.082560710024242 32.500000000000007 1.9848851658944422 3742.0000000000005 3985955692129.0005 1.00811982338274 23.500000000000004 702778646930.00012 17.500000000000004
decision_type=2 2 2 2 2 2 2 2 2 2 2 2 2 2 2 2 2 2 2 2 2 2 2 2 2 2 2 2 2 2
left_child=3 2 19 13 8 7 18 9 -5 22 21 12 -6 -1 28 25 -11 -9 -4 -2 -20 -8 -3 -12 -13 -7 -27 -19 -15 -16
right_child=1 5 6 4 11 15 10 17 -10 16 23 24 -14 14 29 -17 -18 27 20 -21 -22 -23 -24 -25 -26 26 -28 -29 -30 -31
leaf_value=-0.012272978512515543 0.012582765732354262 0.0053720494395004346 -0.0074776067991873633 0.0083388002413596878 0.0052043605543988548 0.013678876445312911 0.01116917158317297 -0.0095350987707741239 -0.008833391174111466 -0.0028460358949815986 0.021510102214699286 0.0055296125359079904 -0.0024899926436717755 0.0056780950020821775 -0.0075981420724086732 0.029828955069070746 0.0053899033280476339 0.0079474519057273971 -0.0056571186748021031 0.030823651862333913 0.0026867953177728537 -0.003700269327043048 0.013120542970751803 0.0037056606925720908 -0.0088247171397514406 -0.0058293140001711274 0.010642631317970124 0.011259437518575386 -0.011196362028568307 -0.0032396522006247555
leaf_weight=4271.4780920743942 1500.2620094567537 4050.9163018912077 3911.0205388367176 337.47990514338017 1555.2997334599495 2503.3484953045845 130.76625068485737 134.92798022925854 7188.3450538516045 1990.5513709187508 80.356970235705376 3636.4460105150938 3964.7742595374584 71.207854613661766 1753.8175505101681 174.14555609226227 1156.2562080174685 3517.6478852927685 849.92415188252926 131.31406423449516 937.21240454912186 2275.7117159813643 505.34945349395275 2880.1017094552517 118.83000652492046 167.29790687561035 1938.4043003022671 3816.7504082322121 3399.1924500316381 2419.9795619100332
leaf_count=24359 7520 20993 21657 1730 8107 12582 659 749 40269 10725 414 18934 21434 375 9737 806 6016 17959 4639 603 5004 12417 2560 15221 656 860 9861 19422 19252 13184
internal_value=0 0.00473248 -0.000249601 -0.00538518 -0.00258325 0.00790232 -0.00235824 0.00649886 -0.00806334 0.00375942 0.00101379 0.00186317 -0.000322082 -0.00933591 -0.00769471 0.0123541 0.00018016 0.00932403 -0.00553426 0.0140508 -0.00128139 -0.00289227 0.00623146 0.00418893 0.00507539 0.0116938 0.00933394 0.00967098 -0.0108501 -0.00507108
internal_weight=0 32652.3 12696.7 28716.9 16801.2 19955.6 11065.1 15172.4 7525.82 7703.07 5366.94 9275.35 5520.07 11915.7 7644.2 4783.2 3146.81 7469.33 5698.16 1631.58 1787.14 2406.48 4556.27 2960.46 3755.28 4609.05 2105.7 7334.4 3470.4 4173.8
internal_count=328704 170667 68134 158037 91130 102533 60011 78424 41999 40294 28711 49131 29541 66907 42548 24109 16741 38130 31300 8123 9643 13076 23553 15635 19590 23303 10721 37381 19627 22921
is_linear=0
shrinkage=0.01


Tree=11
num_leaves=31
num_cat=0
split_feature=2 2 2 3 12 3 3 2 3 4 4 12 2 5 3 3 2 4 2 9 3 3 12 12 4 12 3 4 4 4
split_gain=15367.1 4466.18 2098.65 1222.81 939.961 470.848 468.433 414.359 268.492 235.377 214.664 271.756 185.206 174.176 164.226 141.447 112.095 107.43 99.657 78.0912 75.1821 71.896 71.1643 68.8721 65.251 64.152 62.1816 54.9561 68.6931 49.3093
threshold=20.500000000000004 27.500000000000004 17.500000000000004 22.500000000000004 31.773760685749867 35.500000000000007 32.500000000000007 24.500000000000004 18.500000000000004 16.500000000000004 32.500000000000007 1.00811982338274 86.500000000000014 31.500000000000004 29.500000000000004 20.500000000000004 19.500000000000004 24.500000000000004 22.500000000000004 13.500000000000002 31.500000000000004 2124.0000000000005 44.734093527560766 26.201701017688631 29.500000000000004 1.9983321283588802 229.50000000000003 26.500000000000004 685.50000000000011 7.5000000000000009
decision_type=2 2 2 2 2 2 2 2 2 2 2 2 2 2 2 2 2 2 2 2 2 2 2 2 2 2 2 2 2 2
left_child=2 3 9 13 10 7 8 18 19 -1 20 -12 -13 15 27 22 -10 -6 -5 -4 29 -8 -2 -9 -17 -7 -16 -11 -29 -3
right_child=1 4 6 5 17 25 21 23 16 14 11 12 -14 -15 26 24 -18 -19 -20 -21 -22 -23 -24 -25 -26 -27 -28 28 -30 -31
leaf_value=-0.012356368213584141 1.8859543219155022e-05 -0.0037568186572371426 -0.011707184233104699 0.00050688400340597958 0.0035709194578488258 0.0067932715197696839 0.012109034899413522 0.0074970297907345105 -0.0047055382421819017 -0.0093670008090310473 0.011990344151003668 0.015302909717053772 0.023015425545557699 0.007322761290043253 0.013861332578352113 8.359395411147037e-05 -0.0026370450693545796 0.0080553886417677155 0.00269072864261866 -0.0063097284999045497 0.015480702049875479 0.0016277745968710003 -0.0032897769973588178 0.0047533954064773228 0.0091091112717065666 0.012128995936474126 -0.005049205506914207 0.0086665658473599055 -0.0090791670601059332 0.010932441610574429
leaf_weight=4133.9681563973427 919.36497920751572 23.2686368227005 287.14228193461895 2855.5898130983114 669.98260852694511 335.79847985506058 183.4164217710495 1052.8230035305023 5423.2754150480032 3461.771541967988 771.13563258945942 567.98225498199463 689.13113713264465 290.93542818725109 42.375035479664803 8216.0613459199667 5068.1819181293249 2635.9142460376024 7790.0591496527195 4032.4988478124142 432.95206490159035 101.75122725963593 2219.3878602236509 6985.9037931263447 80.890604272484779 684.97082251310349 29.488455221056938 38.44236333668232 50.428112030029297 1277.0263787806034
leaf_count=23741 4923 119 1591 15178 3471 1731 954 5412 29720 19446 3832 2836 3350 1517 228 43842 27575 13607 40997 22358 2169 546 11952 36590 421 3487 161 210 282 6458
internal_value=0 0.00385379 -0.00649799 0.00223874 0.0110367 0.00376031 -0.0043258 0.003399 -0.00457023 -0.0107257 0.0144556 0.0166639 0.0195308 -0.000318066 -0.00886475 -0.000512456 -0.0037063 0.00714655 0.00210493 -0.00666852 0.0118714 0.0083692 -0.00232065 0.00511273 0.000171588 0.0103737 0.00610158 -0.00916767 -0.00140296 0.0106696
internal_weight=0 38499.2 22852.7 31431.8 7067.39 19705.1 15096.3 18684.4 14811.1 7756.47 3761.5 2028.25 1257.11 11726.6 3622.51 11435.7 10491.5 3305.9 10645.6 4319.64 1733.25 285.168 3138.75 8038.73 8296.95 1020.77 71.8635 3550.64 88.8705 1300.3
internal_count=328704 201892 126812 166050 35842 103395 82744 98177 81244 44068 18764 10018 6186 62655 20327 61138 57295 17078 56175 23949 8746 1500 16875 42002 44263 5218 389 19938 492 6577
is_linear=0
shrinkage=0.01


Tree=12
num_leaves=31
num_cat=0
split_feature=2 1 1 2 1 10 2 1 1 1 1 0 7 1 9 0 0 4 1 2 5 0 4 1 14 0 3 10 9 1
split_gain=15084.6 6581.06 4337.84 2081.8 3065.15 1520.93 1511.65 1072.67 852.961 698.905 587.164 509.076 470.698 454.981 442.649 413.249 1014.49 399.695 299.371 296.03 274.046 245.468 234.99 198.298 213.177 191.51 191.341 188.204 184.146 179.663
threshold=20.500000000000004 1119808876872.0002 702778646930.00012 17.500000000000004 1119808876872.0002 22.500000000000004 25.500000000000004 4363500798102.0005 1119808869562.5002 702778646930.00012 4363500802198.0005 4354032.5000000009 122.50000000000001 3985955692129.0005 3742.0000000000005 4226366.5000000009 4266635.0000000009 32.500000000000007 1119808873212.5002 23.500000000000004 18.500000000000004 4226210.0000000009 16.500000000000004 4363500809332.5005 30.840485363222328 4352582.5000000009 32.500000000000007 29.500000000000004 20.500000000000004 4363500809010.5005
decision_type=2 2 2 2 2 2 2 2 2 2 2 2 2 2 2 2 2 2 2 2 2 2 2 2 2 2 2 2 2 2
left_child=3 2 17 22 9 18 7 15 12 -5 13 -8 -7 26 29 21 -17 -2 -4 -10 -15 -3 -1 24 -12 -19 -6 -13 -20 -9
right_child=1 6 5 4 10 8 11 14 19 -11 23 27 -14 20 -16 16 -18 25 28 -21 -22 -23 -24 -25 -26 -27 -28 -29 -30 -31
leaf_value=-0.012317108229153008 0.0095740922434384857 0.0026189270652116421 -0.008325738016141393 0.0066480957573394617 0.0012950363622498378 -0.0039345541590023727 0.010297756486111295 0.0090335646912275431 -0.00051905258098389033 -0.0099735601297597978 -0.0022111358980730347 -0.0043342495587113681 0.012238995411215807 -0.0078561263816473766 -0.0084111665872996667 -0.0071737540721140735 0.0035139763317175348 0.016723494586159893 -0.0068240948546190987 0.0058037072835501755 -0.0021711702171226372 0.0081515908507727337 -0.0088183451364212944 -0.0092710433057457773 0.0053843098188578117 0.03012345327684145 0.012775530367291257 0.03009920729181649 0.00067027923647318757 -0.0021590890415063503
leaf_weight=4105.814706236124 1098.530850186944 1368.1721318364143 4527.4074408710003 263.29386459290981 1393.5454689115286 4113.5109384506941 7708.4621056318283 6291.4979210346937 1145.8034707307816 6451.7334621548653 444.5788908302784 17.49268501996994 188.1730495095253 1210.2841169387102 153.37445341050625 1106.6463619917631 4497.9041586369276 555.42568361759186 626.85891157388687 2093.3790152221918 2832.3486213386059 1937.5305175185204 3605.2510357946157 115.75759652256966 2188.5436856150627 132.00428737699986 162.05540180206299 171.4644029289484 687.37949828803539 146.75990927219391
leaf_count=23741 5493 7153 25293 1354 7406 22521 38829 32071 6131 36599 2402 86 952 6710 858 6010 23511 2735 3466 10919 15306 10005 20327 644 11487 596 836 779 3723 761
internal_value=0 0.00380838 -0.00132219 -0.00645563 -0.00429231 -0.00327578 0.00713425 0.0053201 -0.000308606 -0.00932183 -0.000246198 0.0106953 -0.00322706 -0.0021047 0.00837846 0.00305758 0.00140363 0.0133164 -0.00710605 0.00356714 -0.00387313 0.00586172 -0.0106813 0.00353874 0.00410189 0.0192966 0.00249102 0.0269115 -0.00290435 0.00877843
internal_weight=0 38567.8 15168.5 22773.2 15062.1 13382.5 23399.3 15501.9 7540.87 6715.03 8347.11 7897.42 4301.68 5598.23 6591.63 8910.25 5604.55 1785.96 5841.65 3239.18 4042.63 3305.7 7711.07 2748.88 2633.12 687.43 1555.6 188.957 1314.24 6438.26
internal_count=328704 201892 81829 126812 82744 73005 120063 80369 40523 37953 44791 39694 23473 30258 33690 46679 29521 8824 32482 17050 22016 17158 44068 14533 13889 3331 8242 865 7189 32832
is_linear=0
shrinkage=0.01


Tree=13
num_leaves=31
num_cat=0
split_feature=3 1 1 1 3 3 1 10 1 1 1 4 1 1 1 10 13 5 7 10 10 1 7 1 16 1 1 5 1 14
split_gain=13892.5 4733.11 3853.65 3135.21 3687.59 1092.92 1207.84 1001.15 977.686 697.382 836.26 485.647 411.265 418.768 383.455 373.437 364.057 360.989 345.544 328.229 278.764 283.49 270.165 269.855 369.001 637.06 524.68 331.579 259.463 277.021
threshold=21.500000000000004 1119808874801.5002 702778646930.00012 2384994534164.0005 17.500000000000004 26.500000000000004 4363500795995.5005 24.500000000000004 702778646930.00012 4363500802198.0005 3985955692129.0005 18.500000000000004 3985955692129.0005 4363500793984.0005 1119808867592.0002 35.500000000000007 1.9930857874209706 32.500000000000007 16.500000000000004 21.500000000000004 19.500000000000004 1119808875303.5002 16.500000000000004 2627809358204.0005 3.9939147981195839 4363500793984.0005 4092079264655.5005 36.500000000000007 4363500809332.5005 30.840485363222328
decision_type=2 2 2 2 2 2 2 2 2 2 2 2 2 2 2 2 2 2 2 2 2 2 2 2 2 2 2 2 2 2
left_child=3 2 17 8 18 6 12 19 22 10 -6 -12 -3 -14 -9 -8 -16 -2 -5 -4 -10 -22 -1 27 26 -26 -25 -7 29 -11
right_child=1 5 7 4 9 23 15 14 20 28 11 -13 13 -15 16 -17 -18 -19 -20 -21 21 -23 -24 24 25 -27 -28 -29 -30 -31
leaf_value=-0.010879124508474433 0.0091561397043211454 0.0046950698721831535 -0.0085048465881183821 -0.01181731035407374 0.0048351937619849836 0.010067637173133073 0.0090333529295612194 -0.002192284657615519 -0.011109724192017235 -0.0018377251374544895 -0.0080786800353236793 -0.0011332328019049021 -0.0030123003975529622 0.0048975654914363729 0.026033017882785926 -0.0080832929469654754 0.003427052758271096 0.018547416187334544 -0.006422903535428244 -0.0037881435168618696 -0.0089516966313899979 -0.003061351872687682 0.0080414395526663841 0.0081952090523750784 0.0039553639779806981 0.013555865817575698 -0.011789605768000604 0.016754023859409974 -0.0092525302418811524 0.006117005716093438
leaf_weight=92.048757165670395 949.1906825453043 5151.7653232365847 2474.8009565770626 2759.7238245308399 1937.0448018312454 1909.616517111659 6794.0560348778963 1815.1246968656778 5618.2922531962395 510.19877211749554 1325.3534918576479 4187.8977217376232 1779.8866147696972 1072.7118433266878 74.509735971689224 129.89884519577026 1623.2959639728069 719.60499086976051 2084.2674086242914 3653.3032207041979 5273.9283040910959 966.85612002015114 418.94987905025482 384.72863215208054 1086.7299909293652 1898.9553432017565 199.48583349585533 1212.6144553869963 132.66735129058361 3084.4998831152916
leaf_count=526 4718 26712 13861 15918 10129 9624 34456 9866 32154 2754 7356 22460 9594 5580 379 722 8577 3480 11686 19984 29872 5342 2135 1956 5577 9495 1045 5960 746 16040
internal_value=0 0.00441722 -0.000824569 -0.00512841 -0.0022085 0.00715924 0.00565389 -0.00325312 -0.00891026 0.000949734 -0.000817012 -0.00280288 0.00300836 -3.7817e-05 0.00100303 0.00871223 0.00441914 0.0132058 -0.00949621 -0.00569296 -0.00949384 -0.00803913 0.00463318 0.0105173 0.00863931 0.0100615 0.0013712 0.0126645 0.00448112 0.00498798
internal_weight=0 32930.3 11309.8 28391.7 16021.7 21620.4 14928.3 9641.03 12370.1 11177.7 7450.3 5513.25 8004.36 2852.6 3512.93 6923.95 1697.81 1668.8 4843.99 6128.1 11859.1 6240.78 510.999 6692.13 3569.9 2985.69 584.214 3122.23 3727.37 3594.7
internal_count=328704 171586 60865 157118 87089 110721 77064 52667 70029 59485 39945 29816 41886 15174 18822 35178 8956 8198 27604 33845 67368 35214 2661 33657 18073 15072 3001 15584 19540 18794
is_linear=0
shrinkage=0.01


Tree=14
num_leaves=31
num_cat=0
split_feature=2 1 1 2 1 2 11 1 1 1 1 7 1 9 1 1 2 1 2 1 1 12 2 5 4 9 1 3 11 1
split_gain=14586.9 6278.56 4139.79 2051.12 2989.14 1438.58 1427.03 1022.94 749.509 679.21 565.414 450.747 438.447 423.244 398.265 548.975 380.895 337.644 307.839 394.708 308.924 388.676 284.516 267.409 234.138 233.348 224.048 217.878 195.845 190.85
threshold=20.500000000000004 1119808876872.0002 702778646930.00012 17.500000000000004 1119808876872.0002 25.500000000000004 22.500000000000004 4363500798102.0005 1119808869562.5002 702778646930.00012 4363500802198.0005 122.50000000000001 3985955692129.0005 3742.0000000000005 2627809358204.0005 4363500793984.0005 30.500000000000004 1119808871630.0002 30.500000000000004 4363500797997.5005 3704300934221.5005 1.00811982338274 22.500000000000004 18.500000000000004 16.500000000000004 20.500000000000004 3704300934221.5005 31.500000000000004 24.500000000000004 4363500809332.5005
decision_type=2 2 2 2 2 2 2 2 2 2 2 2 2 2 2 2 2 2 2 2 2 2 2 2 2 2 2 2 2 2
left_child=3 2 16 24 9 7 17 14 11 -5 12 -8 -6 -9 27 -16 -2 -4 19 26 -20 -22 -10 -14 -1 -19 -7 -3 -21 -12
right_child=1 5 6 4 10 18 8 13 22 -11 29 -13 23 -15 15 -17 -18 25 20 28 21 -23 -24 -25 -26 -27 -28 -29 -30 -31
leaf_value=-0.012246732060710237 0.0094346492881644695 0.0046313913924913679 -0.0085434300406458646 0.0064465440215947687 0.0024248589344501264 0.0092605349094533468 -0.0037807896385641973 0.0085517890147417917 -0.0025443045887401324 -0.0098860389810087948 0.0040048995163734641 0.012015342721907534 -0.0077722345697489236 -0.0083247191193707454 -0.0021307259378736303 0.0043823574696596678 0.018976662372819374 -0.0073052071972043633 0.015454021433311173 0.015964299690609689 -0.0049762494753740208 0.011688243763113932 0.0048255173703695767 -0.0021400041700857437 -0.0087360027128105845 -0.00016903293866289516 0.0040537888374242428 0.012450742756716007 0.0096020740946737553 -0.0091762293449529197
leaf_weight=4054.5112252533436 1146.9634890854359 3360.5322204083204 4011.2922541201115 265.19718262553215 1559.9917838275433 1849.8938576281071 4062.1027414649725 6486.3574262857437 658.54484230279922 6384.5849612951279 2643.3961339145899 189.05496469140053 1201.0980536341667 152.08669544756413 2542.5569531470537 2635.6494840085506 658.52119795978069 833.1836000084877 1848.5064303278923 915.83060649037361 178.2203601449728 651.94537530839443 2560.7878089398146 2827.2468108981848 3574.383968859911 1018.1778512448072 1493.7708838135004 398.61495734751225 1025.7196485549212 114.60933095216751
leaf_count=23741 5670 17380 22628 1354 8242 9235 22322 32832 3573 36599 13889 951 6710 858 13640 13664 3154 4651 9017 4555 908 3272 13341 15306 20327 5539 7609 1995 5098 644
internal_value=0 0.00372829 -0.00129576 -0.00638041 -0.00423287 0.00695931 -0.00322007 0.00519163 -0.000321908 -0.00923469 -0.000247764 -0.00307831 -0.00207625 0.00816515 0.00298297 0.00118436 0.0129149 -0.00691306 0.0104165 0.00901686 0.0131782 0.0081107 0.00331795 -0.00381932 -0.0106018 -0.00338058 0.00693444 0.00546054 0.0126031 0.00345716
internal_weight=0 38678.3 15138.6 22625 14996.1 23539.7 13333.1 15575.8 7470.49 6649.78 8346.34 4251.16 5588.34 6638.44 8937.35 5178.21 1805.48 5862.65 7963.89 5285.21 2678.67 830.166 3219.33 4028.34 7628.9 1851.36 3343.66 3759.15 1941.55 2758.01
internal_count=328704 201892 81829 126812 82744 120063 73005 80369 40187 37953 44791 23273 30258 33690 46679 27304 8824 32818 39694 26497 13197 4180 16914 22016 44068 10190 16844 19375 9653 14533
is_linear=0
shrinkage=0.01


Tree=15
num_leaves=31
num_cat=0
split_feature=2 1 1 2 1 10 2 1 1 1 1 1 9 0 7 1 0 4 1 2 5 4 4 1 14 0 9 10 12 1
split_gain=14320.9 6127.19 4043.67 2034.27 2952.04 1464.73 1396.42 996.21 810.546 670.322 629.657 553.886 504.305 481.183 448.329 430.514 420.858 370.78 291.587 280.486 264.043 234.836 233.846 187.254 202.738 180.401 177.663 176.411 169.627 167.347
threshold=20.500000000000004 1119808876872.0002 702778646930.00012 17.500000000000004 1119808876872.0002 22.500000000000004 25.500000000000004 4363500796232.0005 1119808869562.5002 702778646930.00012 3985955692129.0005 4363500802198.0005 3742.0000000000005 4354032.5000000009 122.50000000000001 3985955692129.0005 4348916.5000000009 32.500000000000007 1119808873212.5002 23.500000000000004 18.500000000000004 33.500000000000007 16.500000000000004 4363500809332.5005 30.840485363222328 4352582.5000000009 20.500000000000004 29.500000000000004 62.841753062072591 4363500799891.0005
decision_type=2 2 2 2 2 2 2 2 2 2 2 2 2 2 2 2 2 2 2 2 2 2 2 2 2 2 2 2 2 2
left_child=3 2 17 22 9 18 7 10 14 -5 21 15 -9 29 -7 28 -12 -2 -4 -10 -17 -3 -1 24 -13 -19 -20 -15 -6 -8
right_child=1 6 5 4 11 8 13 12 19 -11 16 23 -14 27 -16 20 -18 25 26 -21 -22 -23 -24 -25 -26 -27 -28 -29 -30 -31
leaf_value=-0.012208871336012714 0.0091306031792060278 0.0041674431494320621 -0.0081957224888364929 0.0063629276629576358 0.0033543004726706649 -0.0038451812988110992 0.0090723458204916216 0.0079980606177627572 -0.00050716273530974356 -0.0098409481184990027 -0.004076673033720492 -0.0022045483586372798 -0.0089400691868870442 -0.0043663648487562538 0.011858190392134378 -0.0077266733593466756 0.0031024040327277463 0.015937413282203768 -0.0067055201802907376 0.0056422251762980194 -0.0021209347379783305 0.011189843428648301 -0.0086901867921972218 -0.0091296790374656971 0.0051993972112355643 0.028804479055585724 0.00067525783729639093 0.028918595475627137 -0.0089560644142012268 0.012532868419643059
leaf_weight=4026.5538516491652 1113.8214409351349 3855.7696422338486 4470.7475533783436 265.99133118987083 1440.4897899478674 4089.4623667895794 5984.5175766199827 7749.7308352291584 1144.9833901226521 6349.8749284893274 1763.2399038225412 444.4017451107502 179.85663512349129 17.5181555300951 190.26603193581104 1196.1236953437328 1520.950818285346 566.45472958683968 620.7268832474947 2106.0595602989197 2824.1558854430914 543.30444356799126 3557.3818046301603 114.04460093379021 2204.1541328430176 134.91559094190598 687.1757435053587 174.89072671532631 121.36196281015873 1823.1743412315845
leaf_count=23741 5493 19888 25293 1354 7584 22521 29810 39178 6131 36599 9592 2402 1014 86 952 6710 7949 2735 3466 10919 15306 2748 20327 644 11487 596 3723 779 658 9019
internal_value=0 0.00368521 -0.00128412 -0.00633936 -0.00420063 -0.00319365 0.00686817 0.00512741 -0.000287666 -0.00918947 0.00256123 -0.000245379 0.00761387 0.0102654 -0.00314705 -0.00205782 -0.00075195 0.012717 -0.00698074 0.00347647 -0.00378877 0.00503474 -0.0105584 0.00341684 0.00395709 0.0184125 -0.00282764 0.0258881 0.00239774 0.00988041
internal_weight=0 38737.6 15124.6 22544.5 14960.6 13309.4 23613 15612.9 7530.77 6615.87 7683.26 8344.73 7929.59 8000.1 4279.73 5582.13 3284.19 1815.19 5778.65 3251.04 4020.28 4399.07 7583.94 2762.6 2648.56 701.37 1307.9 192.409 1561.85 7807.69
internal_count=328704 201892 81829 126812 82744 73005 120063 80369 40523 37953 40177 44791 40192 39694 23473 30258 17541 8824 32482 17050 22016 22636 44068 14533 13889 3331 7189 865 8242 38829
is_linear=0
shrinkage=0.01


Tree=16
num_leaves=31
num_cat=0
split_feature=2 1 1 2 1 10 2 1 1 1 1 0 1 7 12 0 0 2 1 2 4 0 3 1 14 8 1 3 10 0
split_gain=14060.3 5979.99 3950.53 2017.54 2915.83 1443.72 1355.81 971.986 794.481 657.663 534.376 465.587 451.484 438.51 403.505 392.178 963.248 359.621 288.611 273.77 233.577 233.497 197.626 183.734 198.035 173.753 172.208 171.642 170.132 167.609
threshold=20.500000000000004 1119808876872.0002 702778646930.00012 17.500000000000004 1119808877208.5002 22.500000000000004 25.500000000000004 4363500798102.0005 1119808869562.5002 702778646930.00012 4363500802198.0005 4354032.5000000009 3985955692129.0005 122.50000000000001 7.8877207735775388 4226366.5000000009 4266635.0000000009 30.500000000000004 1119808873212.5002 23.500000000000004 16.500000000000004 4226210.0000000009 18.500000000000004 4363500809332.5005 30.840485363222328 19.500000000000004 4363500809010.5005 32.500000000000007 29.500000000000004 4352582.5000000009
decision_type=2 2 2 2 2 2 2 2 2 2 2 2 2 2 2 2 2 2 2 2 2 2 2 2 2 2 2 2 2 2
left_child=3 2 17 20 9 18 7 15 13 -5 12 -8 27 -7 -9 21 -17 -2 -4 -10 -1 -3 -14 24 -12 -20 -16 -6 -13 -19
right_child=1 6 5 4 10 8 11 14 19 -11 23 28 22 -15 26 16 -18 29 25 -21 -22 -23 -24 -25 -26 -27 -28 -29 -30 -31
leaf_value=-0.012171486190120491 0.0091529681097698833 0.0024739736786625346 -0.0081501078678827363 0.0062807417066279882 0.0014862124444207727 -0.0038144412289997393 0.0097390315983713494 -0.0082295748912399689 -0.00050221957887356002 -0.0097453233332138248 -0.0021849690895708864 -0.0043307574535070845 -0.0070810640443452868 0.011677775870486899 0.0085700447538224409 -0.0070946996252978633 0.0033398987661401192 0.015834546229120405 -0.0088254271862726798 0.0055707274647524068 -0.008644624000594377 0.0078490213299396098 -0.0022760074837380219 -0.0090834063869969575 0.0051344948829169547 -0.00059417793249866302 -0.0023363852305808216 0.0123206977807438 0.028370672515345807 0.028272612846881817
leaf_weight=3998.6721550673246 1156.9555145949125 1376.5356370210648 4450.9115108251572 266.77323549985886 1335.6719165444374 4081.2359393388033 7841.6493368893862 150.66924870014191 1144.6919460147619 6379.0899696946144 443.90270997583866 17.485731840133667 1237.8349980115891 191.26837842166424 6387.1909986436367 1099.3958604037762 4529.7919116914272 531.45695880055428 350.54429298639297 2111.7302300482988 3540.4553286880255 1957.4730457216501 2774.4296680986881 113.48213702440262 2209.6674895882607 955.37885412573814 148.13097277283669 164.19493643939495 176.47757641971111 136.08202077448368
leaf_count=23741 5670 7153 25293 1354 7049 22521 38829 858 6131 36957 2402 86 6926 952 32071 6010 23511 2558 1969 10919 20327 10005 15090 644 11487 5220 761 835 779 596
internal_value=0 0.00364281 -0.00127261 -0.00629862 -0.00416868 -0.00316744 0.00677872 0.00506425 -0.000284909 -0.00910202 -0.000208585 0.0101176 -0.00200861 -0.0031209 0.00794983 0.00291179 0.00130199 0.0125253 -0.00693728 0.00343598 -0.0105152 0.00562979 -0.00375843 0.00337717 0.00391006 -0.00280366 0.00832284 0.0026723 0.0254226 0.0183701
internal_weight=0 38795.1 15110.3 22464.2 14925 13285.8 23684.8 15649.2 7528.93 6645.86 8279.18 8035.61 5512.13 4272.5 6685.99 8963.2 5629.19 1824.49 5756.83 3256.42 7539.13 3334.01 4012.26 2767.05 2653.57 1305.92 6535.32 1499.87 193.963 667.539
internal_count=328704 201892 81829 126812 82744 73005 120063 80369 40523 38311 44433 39694 29900 23473 33690 46679 29521 8824 32482 17050 44068 17158 22016 14533 13889 7189 32832 7884 865 3154
is_linear=0
shrinkage=0.01


Tree=17
num_leaves=31
num_cat=0
split_feature=2 2 2 3 9 3 3 2 3 4 13 4 6 3 13 2 3 2 2 5 9 13 3 3 13 5 6 4 4 6
split_gain=13804.6 3911.87 2000.98 1104.7 791.1 428.257 414.475 367.024 256.37 233.331 181.364 186.998 163.582 162.441 154.551 151.358 127.366 109.351 93.0409 82.1415 77.515 66.1394 64.2614 60.7996 59.3206 57.7917 57.5361 55.1886 68.3854 50.4471
threshold=20.500000000000004 27.500000000000004 17.500000000000004 22.500000000000004 34.500000000000007 32.500000000000007 35.500000000000007 24.500000000000004 18.500000000000004 16.500000000000004 1.0637174363213859 40.500000000000007 34.500000000000007 29.500000000000004 40.497694400759777 99.500000000000014 20.500000000000004 19.500000000000004 22.500000000000004 24.500000000000004 13.500000000000002 28.074113231305052 2124.0000000000005 229.50000000000003 1.9930857874209706 30.500000000000004 38.500000000000007 26.500000000000004 685.50000000000011 603.50000000000011
decision_type=2 2 2 2 2 2 2 2 2 2 2 2 2 2 2 2 2 2 2 2 2 2 2 2 2 2 2 2 2 2
left_child=2 3 9 12 14 8 7 18 20 -1 -6 -12 16 27 -3 -13 21 -10 -5 -16 -4 -2 -7 -15 -8 -18 -9 -11 -29 -14
right_child=1 4 5 6 10 22 24 26 17 13 11 15 29 23 19 -17 25 -19 -20 -21 -22 -23 -24 -25 -26 -27 -28 28 -30 -31
leaf_value=-0.012134564833171643 0.0022721706619537345 0.010606119355688989 -0.011532479046666384 0.00042014452758665569 0.010930002976103017 0.011381294379663003 0.0062400369209456253 0.0046107138384183198 -0.0045226800768485521 -0.0091108847502267779 0.012853039985973397 0.014864383427205894 0.011414875202094813 0.014019485256052455 0.0040948707428743779 0.022989389970293827 2.1517900124722764e-06 -0.0024669827050927055 0.0025259905192197038 0.0076361167740493742 -0.0060880606734155787 -0.0027492158845448234 0.0015228410826527933 -0.004797130814499913 0.011318775145567032 0.0082058076325613981 0.0089536114567267729 0.0090396837298962369 -0.0088336281293426976 0.0035763136217957115
leaf_weight=3970.8697858005762 289.10432364046574 1441.8112745881081 280.00521709024906 2864.8031669259071 794.22372636198997 187.47391088306904 342.17707800865173 7818.7728647440672 5349.603326484561 3365.395324498415 707.22631506621838 389.33525873720646 123.74665747582912 42.17537733912468 894.02686674892902 557.70060315728188 8159.1458297520876 5012.0090315788984 7839.21726796031 2450.0728224366903 3958.3466653972864 2830.1317577958107 102.14562477171421 28.96513070166111 701.40945954620838 86.785150393843651 317.44242419302464 37.931918367743492 49.137800216674805 243.98140209913254
leaf_count=23741 1535 7102 1591 15178 3832 954 1731 40404 29720 19446 3459 1883 634 228 4566 2585 43487 27575 40997 12415 22358 15283 546 161 3487 442 1598 210 282 1274
internal_value=0 0.00360104 -0.00625816 0.00208317 0.0102346 -0.00413696 0.00351905 0.00317925 -0.00437583 -0.0104724 0.0148579 0.0167437 -0.000350207 -0.00859931 0.00786935 0.0196491 -0.000562601 -0.00352832 0.00196239 0.00668938 -0.00644774 -0.00228381 0.00790433 0.00635823 0.00965353 8.8492e-05 0.00478016 -0.00890752 -0.00104712 0.00621412
internal_weight=0 38851.1 22384.1 31616.7 7234.4 14889.6 19883.8 18840.2 14600 7494.48 2448.49 1654.26 11732.9 3523.61 4785.91 947.036 11365.2 10361.6 10704 3344.1 4238.35 3119.24 289.62 71.1405 1043.59 8245.93 8136.22 3452.47 87.0697 367.728
internal_count=328704 201892 126812 166050 35842 82744 103395 98177 81244 44068 11759 7927 62655 20327 24083 4468 60747 57295 56175 16981 23949 16818 1500 389 5218 43929 42002 19938 492 1908
is_linear=0
shrinkage=0.01


Tree=18
num_leaves=31
num_cat=0
split_feature=2 2 2 3 12 3 3 2 3 4 4 12 3 6 2 3 2 4 2 9 12 3 3 3 12 5 12 4 4 6
split_gain=13552.1 3808.51 1985.22 1080.02 773.575 419.935 403.324 358.053 253.272 233.081 176.756 238.678 160.191 159.923 153.24 125.008 107.781 98.7766 90.9734 76.9886 71.2039 66.2254 62.3832 59.1177 57.4606 56.4237 55.9908 54.6608 67.0638 48.9576
threshold=20.500000000000004 27.500000000000004 17.500000000000004 22.500000000000004 31.773760685749867 32.500000000000007 35.500000000000007 24.500000000000004 18.500000000000004 16.500000000000004 32.500000000000007 1.00811982338274 29.500000000000004 34.500000000000007 86.500000000000014 20.500000000000004 19.500000000000004 24.500000000000004 22.500000000000004 13.500000000000002 41.226549106060027 31.500000000000004 2124.0000000000005 229.50000000000003 1.9983321283588802 30.500000000000004 23.151045026046127 26.500000000000004 685.50000000000011 603.50000000000011
decision_type=2 2 2 2 2 2 2 2 2 2 2 2 2 2 2 2 2 2 2 2 2 2 2 2 2 2 2 2 2 2
left_child=2 3 9 13 10 8 7 18 19 -1 21 -12 27 15 -13 20 -10 -6 -5 -4 -2 -3 -7 -14 -8 -17 -9 -11 -29 -15
right_child=1 4 5 6 17 22 24 26 16 12 11 14 23 29 -16 25 -18 -19 -20 -21 -22 -23 -24 -25 -26 -27 -28 28 -30 -31
leaf_value=-0.012098098987830383 0.00030255559287299877 0.0096964094229420178 -0.011489547701977906 0.00041585673586383041 0.0031753403373960673 0.011208460011764955 0.0061601657457249085 0.0069620896558307589 -0.0044881944486209972 -0.0090658173435958084 0.01077248493975223 0.013925461779408189 0.01378045883481974 0.011240624606351128 0.020800287859972521 2.1303032805454526e-06 -0.0024454625907919347 0.0074410355455363196 0.0024976780897279635 -0.0060470989332374846 -0.0031541916148017037 0.014135966068236539 0.0015064639864694276 -0.0047613043324319752 0.011149855655779225 0.0080929838414491827 0.0044152193843642971 0.0089067329074408331 -0.0087882222282015705 0.0035344470945767445
leaf_weight=3943.1494277864695 802.69613845646381 1339.2159899622202 278.24976722896099 2865.3945219963789 680.10823835432529 188.45611783862114 343.14262439310551 981.26251411437988 5336.8646367192268 3348.3892967998981 797.76072864234447 588.92006823420525 42.476322025060654 124.40496651828289 721.37512801587582 8159.1545154154301 5005.5861818045378 2689.6271941810846 7848.7500784248114 3945.3733619749546 2312.9315047562122 448.54283407330513 102.22311224043369 28.89161704480648 704.89768420159817 87.113400012254715 7173.2268131822348 38.112231761217117 48.898961380124092 244.40059301257133
leaf_count=23741 4296 6577 1591 15178 3471 954 1731 4932 29720 19446 3832 2836 228 634 3350 43487 27575 13607 40997 22358 12522 2169 546 161 3487 442 37070 210 282 1274
internal_value=0 0.0035593 -0.00621722 0.00206032 0.0100886 -0.0041047 0.00347807 0.00314269 -0.00434221 -0.01043 0.0131233 0.0150848 -0.00855442 -0.00034678 0.0177104 -0.000557141 -0.00349954 0.0065801 0.00194092 -0.00640564 -0.00226361 0.0108103 0.00779656 0.00627427 0.00951616 8.76019e-05 0.00472169 -0.00886248 -0.00103756 0.00613388
internal_weight=0 38912.9 22306.7 31647.4 7265.55 14856.8 19916.7 18868.6 14566.1 7449.92 3895.81 2108.06 3506.77 11730.7 1310.3 11361.9 10342.5 3369.74 10714.1 4223.62 3115.63 1787.76 290.679 71.3679 1048.04 8246.27 8154.49 3435.4 87.0112 368.806
internal_count=328704 201892 126812 166050 35842 82744 103395 98177 81244 44068 18764 10018 20327 62655 6186 60747 57295 17078 56175 23949 16818 8746 1500 389 5218 43929 42002 19938 492 1908
is_linear=0
shrinkage=0.01


Tree=19
num_leaves=31
num_cat=0
split_feature=2 1 1 2 1 10 2 1 1 1 1 1 12 0 7 1 0 4 1 2 5 4 3 1 14 8 1 1 4 3
split_gain=13304.4 5786.54 3778.21 1969.63 2892.77 1402.92 1223.38 957.323 776.569 652.403 597.629 535.492 484.855 430.855 422.177 412.724 408.564 334.269 285.475 259.257 257.954 232.847 230.313 179.577 194.028 170.653 169.016 590.961 512.672 165.128
threshold=20.500000000000004 1119808876872.0002 702778646930.00012 17.500000000000004 1119808876872.0002 22.500000000000004 25.500000000000004 4363500796232.0005 1119808869562.5002 702778646930.00012 3985955692129.0005 4363500802198.0005 7.8877207735775388 4354032.5000000009 122.50000000000001 3985955692129.0005 4348916.5000000009 32.500000000000007 1119808873212.5002 23.500000000000004 18.500000000000004 16.500000000000004 28.500000000000004 4363500809332.5005 30.840485363222328 19.500000000000004 4363500798102.0005 3985955692129.0005 1911.5000000000002 32.500000000000007
decision_type=2 2 2 2 2 2 2 2 2 2 2 2 2 2 2 2 2 2 2 2 2 2 2 2 2 2 2 2 2 2
left_child=3 2 17 21 9 18 7 10 14 -5 22 15 -9 26 -7 29 -12 -2 -4 -10 -17 -1 -3 24 -13 -20 27 -8 -28 -6
right_child=1 6 5 4 11 8 13 12 19 -11 16 23 -14 -15 -16 20 -18 -19 25 -21 -22 -23 -24 -25 -26 -27 28 -29 -30 -31
leaf_value=-0.012062077364277468 0.0086988998766228919 0.0040122798909626488 -0.0081146767183112659 0.0062461188533198811 0.0012840106315541049 -0.0038334231530961368 0.010832806714692774 -0.0088907373666838301 -0.00051391412911184001 -0.0097132840015595728 -0.0040635762200790758 -0.0020871148587579529 0.0077584352698538452 0.024324878536317915 0.011285629902652743 -0.0075801439185571966 0.0030036235104267208 0.017430930011314863 -0.0087800106118265404 0.0053876909605298775 -0.0020075572073889195 -0.0085098049757273541 0.011087160889568881 -0.0089624418914025644 0.0051759756876184919 -0.00060930623201005277 0.012704455716491514 0.0040906605394610517 -0.011508207575906893 0.011815074667557714
leaf_weight=3915.5144560188055 1128.7477342933416 3908.9873742759228 4435.3273658454418 267.08752790093422 1394.0974883288145 4086.1762618869543 3698.8809537887573 178.92096005380154 1145.3403396308422 6250.9925993531942 1761.5390818864107 441.40081818401814 7811.7000074535608 197.58474792540073 193.43387423455715 1180.0307820290327 1527.2406069338322 716.78921215236187 348.90117104351521 2126.2460668236017 2805.7308918833733 3489.9986651837826 521.51859989762306 111.99973528087139 2206.0895091742277 956.10343423485756 2134.334081619978 2004.6312547028065 91.185079202055931 166.69794556498528
leaf_count=23741 5493 20066 25293 1354 7406 22521 17943 1014 6131 36599 9592 2402 39178 865 952 6710 7949 3331 1969 10919 15306 20327 2570 644 11487 5220 10396 10033 457 836
internal_value=0 0.00351815 -0.00131717 -0.00617653 -0.00407266 -0.00317881 0.00658875 0.00495936 -0.00034618 -0.00905932 0.00244779 -0.000159434 0.00738564 0.00973861 -0.00315006 -0.00195038 -0.000781716 0.0120903 -0.00690503 0.00332161 -0.00365739 -0.010388 0.00484507 0.00344035 0.00396504 -0.0027938 0.00937513 0.00846312 0.0117124 0.00240876
internal_weight=0 38973.6 15137.1 22229.6 14824.1 13291.5 23836.5 15709.9 7551.2 6518.08 7719.29 8306.05 7990.62 8126.62 4279.61 5546.56 3288.78 1845.54 5740.33 3271.59 3985.76 7405.51 4430.51 2759.49 2647.49 1305 7929.03 5703.51 2225.52 1560.8
internal_count=328704 201892 81829 126812 82744 73005 120063 80369 40523 37953 40177 44791 40192 39694 23473 30258 17541 8824 32482 17050 22016 44068 22636 14533 13889 7189 38829 27976 10853 8242
is_linear=0
shrinkage=0.01


Tree=20
num_leaves=31
num_cat=0
split_feature=2 1 1 2 1 10 2 1 1 1 1 1 0 7 14 0 0 0 1 5 2 4 0 8 1 14 1 1 1 4
split_gain=13063.2 5649.36 3692.62 1953.54 2857.02 1382.83 1188.95 932.837 761.273 640.025 516.515 432.796 417.803 413.076 386.156 372.168 929.64 329.576 282.755 254.681 253.115 232.666 221.565 176.204 176.192 189.519 166.496 163.731 469.545 432.497
threshold=20.500000000000004 1119808876872.0002 702778646930.00012 17.500000000000004 1119808877208.5002 22.500000000000004 25.500000000000004 4363500798102.0005 1119808869562.5002 702778646930.00012 4363500802198.0005 3985955692129.0005 4354032.5000000009 122.50000000000001 8.2165006602767168 4226366.5000000009 4266635.0000000009 4352582.5000000009 1119808873607.5002 18.500000000000004 23.500000000000004 16.500000000000004 4226210.0000000009 19.500000000000004 4363500809332.5005 30.840485363222328 4363500809010.5005 4363500799891.0005 3985955692129.0005 1911.5000000000002
decision_type=2 2 2 2 2 2 2 2 2 2 2 2 2 2 2 2 2 2 2 2 2 2 2 2 2 2 2 2 2 2
left_child=3 2 17 21 9 18 7 15 13 -5 11 -6 27 -7 -9 22 -17 -2 -4 -13 -10 -1 -3 -20 25 -12 -16 28 -8 -29
right_child=1 6 5 4 10 8 12 14 20 -11 24 19 -14 -15 26 16 -18 -19 23 -21 -22 -23 -24 -25 -26 -27 -28 29 -30 -31
leaf_value=-0.012026490629523569 0.010705188092597665 0.0023599849336623942 -0.0079752862776513236 0.0061659164142905112 0.0026765248591632917 -0.003802761232513982 0.010676019717657224 -0.0081668289545793991 -0.00050890685618457674 -0.0096182074830888711 -0.002068474941654865 -0.0075355940117953395 0.023916380181116002 0.011118708852820005 0.0083152099739259439 -0.0070468641870526892 0.0032155476785968892 0.026629075654322296 -0.0088501963103228293 -0.0019895539915772771 0.0053202922914756812 -0.0084652035210547975 0.0075787302331207142 -2.98374512555338e-05 -0.0089171304471403236 0.0051114434489809603 -0.0023925682789815565 0.01284316977921373 0.004991205519891284 -0.011419453290498266
leaf_weight=3887.9677436947823 1713.588969796896 1383.1441616863012 4572.4827755242586 267.85215684771538 1499.297976270318 4077.9735987335443 3715.5854926258326 149.73331518471241 1145.0450933277607 6280.081577539444 440.92710204422474 1175.1614656597376 198.9430059492588 194.36969065666199 6440.0964320749044 1095.0158845186234 4552.672996416688 140.64190778136253 310.71337705850601 2802.8228790163994 2131.6227875798941 3473.3863769322634 1975.381309196353 835.51491916179657 111.4459453523159 2211.5743186473846 148.56312993168831 1782.2271461039782 2385.9083325564861 76.628498807549477
leaf_count=23741 8221 7153 26162 1354 7884 22521 17943 858 6131 36957 2402 6710 865 952 32071 6010 23511 603 1761 15306 10919 20327 10005 4559 644 11487 761 8633 11867 386
internal_value=0 0.00347817 -0.00130542 -0.00613681 -0.00404161 -0.00315276 0.00650434 0.00489885 -0.000342864 -0.00897254 -0.000123827 -0.00190222 0.00960238 -0.00312391 0.00771289 0.0027934 0.0012258 0.011913 -0.00686198 -0.00362794 0.00328325 -0.0103461 0.00542949 -0.00242081 0.00340039 0.00391792 0.00807377 0.00924465 0.00845305 0.011843
internal_weight=0 39025.9 15122 22150.5 14789.2 13267.7 23903.9 15744.6 7549.01 6547.93 8241.23 5477.28 8159.29 4272.34 6738.39 9006.21 5647.69 1854.23 5718.71 3977.98 3276.67 7361.35 3358.53 1146.23 2763.95 2652.5 6588.66 7960.35 6101.49 1858.86
internal_count=328704 201892 81829 126812 82744 73005 120063 80369 40523 38311 44433 29900 39694 23473 33690 46679 29521 8824 32482 22016 17050 44068 17158 6320 14533 13889 32832 38829 29810 9019
is_linear=0
shrinkage=0.01


Tree=21
num_leaves=31
num_cat=0
split_feature=2 1 1 2 1 10 2 1 1 1 1 1 9 7 1 1 4 1 2 1 1 1 2 5 2 4 3 1 14 9
split_gain=12826.6 5515.82 3609.49 1937.59 2821.42 1363.01 1155.75 910.377 746.286 635.558 574.489 513.715 464.916 404.202 398.106 390.788 319.541 279.991 262.981 367.34 307.581 272.374 422.89 251.446 247.135 232.503 222.251 172.877 185.124 170.294
threshold=20.500000000000004 1119808876872.0002 702778646930.00012 17.500000000000004 1119808876872.0002 22.500000000000004 25.500000000000004 4363500796232.0005 1119808869562.5002 702778646930.00012 3985955692129.0005 4363500802198.0005 3742.0000000000005 122.50000000000001 3985955692129.0005 4363500793984.0005 32.500000000000007 1119808873212.5002 30.500000000000004 4363500795714.5005 3704300934221.5005 3985955705092.0005 2404.5000000000005 18.500000000000004 23.500000000000004 16.500000000000004 28.500000000000004 4363500809332.5005 30.840485363222328 20.500000000000004
decision_type=2 2 2 2 2 2 2 2 2 2 2 2 2 2 2 2 2 2 2 2 2 2 2 2 2 2 2 2 2 2
left_child=3 2 16 25 9 17 7 10 13 -5 26 14 -9 -7 -6 -12 -2 -4 19 20 -8 -20 -23 -16 -10 -1 -3 28 -13 -19
right_child=1 6 5 4 11 8 18 12 24 -11 15 27 -14 -15 23 -17 -18 29 21 -21 -22 22 -24 -25 -26 -27 -28 -29 -30 -31
leaf_value=-0.01199132967544771 0.0084351561934910089 0.0039151474629841553 -0.0080250669077571377 0.0060870605801223807 0.0023576650179764772 -0.0037723034096365598 0.0083721818529586666 0.0075564982227402933 -0.00050394712275226444 -0.0096257866509544283 -0.0037194204921747048 -0.0020499846081603029 -0.0088121877880474563 0.010955601974445355 -0.0074912727246369262 0.0032633088400917548 0.016930727916188219 -0.0065719461393972476 0.013667434647726014 0.011146677391908829 0.0018310764701743058 0.010690195246669443 -0.0088362572502850237 -0.0019716968382846593 0.0052539623361745006 -0.0084208320637051502 0.010841619033950832 -0.0088720703993072445 0.0050479241119676952 0.00067576016627404203
leaf_weight=3860.5119371414185 1137.9391846358776 3923.9102274924517 4396.3175956308842 268.60504692792892 1564.1939232498407 4069.8314346522093 1901.9666568338871 7864.2611527293921 1144.7526946663857 6182.9577728658915 1903.5453576147556 440.45743143558502 177.43389093875885 195.2861749380827 1170.3173649907112 1384.3451631218195 724.67887417972088 613.77418847382069 2144.673905134201 2367.5789701491594 1155.6986318975687 476.86685249209404 144.5277791172266 2799.9398624151945 2136.9217872023582 3456.8547479510307 525.2682653516531 110.89461337029934 2216.981653958559 687.1131336838007
leaf_count=23741 5493 20066 25293 1354 8242 22521 9235 39178 6131 36599 10379 2402 1014 952 6710 7162 3331 3466 10161 11452 5810 2312 724 15306 10919 20327 2570 644 11487 3723
internal_value=0 0.00343878 -0.00129379 -0.00609734 -0.00401078 -0.00312692 0.00642138 0.00483926 -0.000339581 -0.0089716 0.00239043 -0.000156043 0.00719534 -0.00309796 -0.00191527 -0.000779387 0.0117405 -0.00681915 0.00946897 0.00818957 0.00589986 0.0119783 0.00614861 -0.00359871 0.00324542 -0.0103046 0.00473288 0.003361 0.00387148 -0.00274379
internal_weight=0 39076.7 15106.6 22071.7 14754.3 13244 23970.1 15778.8 7546.79 6451.56 7737.07 8302.78 8041.7 4265.12 5534.45 3287.89 1862.62 5697.2 8191.31 5425.24 3057.67 2766.07 621.395 3970.26 3281.67 7317.37 4449.18 2768.33 2657.44 1300.89
internal_count=328704 201892 81829 126812 82744 73005 120063 80369 40523 37953 40177 44791 40192 23473 30258 17541 8824 32482 39694 26497 15045 13197 3036 22016 17050 44068 22636 14533 13889 7189
is_linear=0
shrinkage=0.01


Tree=22
num_leaves=31
num_cat=0
split_feature=2 2 2 0 0 0 0 3 9 0 0 9 0 0 3 3 4 2 0 0 0 0 3 6 3 3 10 4 11 4
split_gain=12594.5 3491.02 1921.79 1143.59 1035.8 4089.7 850.659 847.176 700.047 632.738 550.856 483.924 447.042 330.61 257.378 246.085 232.359 229.553 206.984 184.212 914.362 173.934 160.284 159.958 137.762 103.25 86.1113 80.249 76.5996 71.7276
threshold=20.500000000000004 27.500000000000004 17.500000000000004 4353402.0000000009 4291131.5000000009 4226366.5000000009 4226279.5000000009 22.500000000000004 34.500000000000007 4266635.0000000009 4352582.5000000009 35.500000000000007 4598418.5000000009 4226210.0000000009 18.500000000000004 13.500000000000002 16.500000000000004 23.500000000000004 4348916.5000000009 4302734.0000000009 4226366.5000000009 4352413.0000000009 29.500000000000004 4427.5000000000009 20.500000000000004 70.500000000000014 36.500000000000007 24.500000000000004 22.500000000000004 4095.0000000000005
decision_type=2 2 2 2 2 2 2 2 2 2 2 2 2 2 2 2 2 2 2 2 2 2 2 2 2 2 2 2 2 2
left_child=2 3 16 4 5 13 15 24 19 26 18 -7 14 -2 -11 -4 -1 -9 -10 20 -3 27 -18 28 -6 -17 -8 -21 -5 -20
right_child=1 8 6 23 7 11 9 17 10 12 -12 -13 -14 -15 -16 25 22 -19 29 21 -22 -23 -24 -25 -26 -27 -28 -29 -30 -31
leaf_value=-0.01195658525186922 0.00307005671238441 0.010044727826462941 -0.012637181067208264 -0.0095457867615556316 -0.0010556925907445015 -0.0070230310852629606 -0.0097551014692618919 0.0035020159798663363 0.012965063617556807 -0.0056716907340591425 0.025586623668072565 0.0073052553177756401 -0.011121129049392962 0.0081780849616185491 -0.0021390389971365975 0.0034118587004097617 -0.0086892324537975098 0.0063904129032748419 0.018615172681685357 0.0061818818382335366 -0.0038337763265091107 -0.00059410899753950888 0.0065294888054765231 0.019271002642734531 0.0019522612888665839 0.013075672619278087 -0.0012875583748152694 0.010586864919350607 -0.0049378410844099279 -0.00038767836514422299
leaf_weight=3833.1500270068645 2134.874796256423 1341.649846598506 91.957484975457191 666.21731536090374 2098.7698375433683 5045.4704714715481 2364.8245220035315 4233.4303576797247 1973.6721397936344 2910.9319493770599 347.15578776597977 247.26788923144341 760.75925442576408 3117.2513020634651 7075.0328502058983 1268.4952307790518 3369.749221175909 7860.2043777257204 22.615756928920746 515.39874505996704 734.65853868424892 174.55742351710796 70.655427753925323 23.460471391677856 5546.340854883194 121.1145054847002 126.52644088864326 2093.3094422221184 786.8096519857645 163.20003750920296
leaf_count=23741 10832 6427 523 3835 11187 28188 13819 21891 9354 16627 1488 1279 4513 15483 39283 6645 19938 39770 110 2559 3857 956 389 116 29113 605 729 10284 4356 807
internal_value=0 0.00339995 -0.00605811 0.0019614 0.00238039 -0.000149913 -0.00398017 0.00373214 0.00960236 -0.0047844 0.0138947 -0.00635364 -0.00373176 0.00610178 -0.00316882 0.00320572 -0.0102633 0.00537932 0.0120151 0.0073883 0.00513411 0.00906993 -0.00837669 -0.00663236 0.0011265 0.00425413 -0.00932507 0.00971658 -0.0070506 0.00192517
internal_weight=0 39126.3 21993.2 31760.1 30283.6 10544.9 14719.6 19738.7 7366.22 13238.1 2506.64 5292.74 10746.7 5252.13 9985.96 1481.57 7273.55 12093.6 2159.49 4859.57 2076.31 2783.27 3440.4 1476.49 7645.11 1389.61 2491.35 2608.71 1453.03 185.816
internal_count=328704 201892 126812 166050 157743 55782 82744 101961 35842 74971 11759 29467 60423 26315 55910 7773 44068 61661 10271 24083 10284 13799 20327 8307 40300 7250 14548 12843 8191 917
is_linear=0
shrinkage=0.01


Tree=23
num_leaves=31
num_cat=0
split_feature=2 1 1 2 1 10 2 1 1 1 1 1 0 7 12 0 0 0 1 5 2 4 0 8 1 16 1 12 3 1
split_gain=12365.7 5323.1 3472.51 1906.59 2780.3 1335.76 1090.13 885.362 713.562 618.509 497.471 412.079 391.372 387.752 368.109 349.911 885.545 306.589 273.628 247.685 236.808 232.215 208.191 172.077 168.862 180.952 159.398 158.299 158.04 157.326
threshold=20.500000000000004 1119808876872.0002 702778646930.00012 17.500000000000004 1119808877208.5002 22.500000000000004 25.500000000000004 4363500798102.0005 1119808869562.5002 702778646930.00012 4363500802198.0005 3985955692129.0005 4354032.5000000009 122.50000000000001 7.8877207735775388 4226366.5000000009 4266635.0000000009 4352582.5000000009 1119808873607.5002 18.500000000000004 23.500000000000004 16.500000000000004 4226210.0000000009 19.500000000000004 4363500809332.5005 31.704132692285452 4363500809010.5005 62.841753062072591 29.500000000000004 4363500798102.0005
decision_type=2 2 2 2 2 2 2 2 2 2 2 2 2 2 2 2 2 2 2 2 2 2 2 2 2 2 2 2 2 2
left_child=3 2 17 21 9 18 7 15 13 -5 11 27 29 -7 -9 22 -17 -2 -4 -13 -10 -1 -3 -20 25 -12 -16 -6 -23 -8
right_child=1 6 5 4 10 8 12 14 20 -11 24 19 -14 -15 26 16 -18 -19 23 -21 -22 28 -24 -25 -26 -27 -28 -29 -30 -31
leaf_value=-0.011922248595165297 0.010271289543812347 0.0022667053727796751 -0.007873349868308583 0.0059632908568610209 0.0035417255363237522 -0.0037182896832277739 0.008007790947452461 -0.0080922985749074857 -0.00052409156836856464 -0.0095045146907536127 -0.0020024303297949226 -0.0074179106706175378 0.022977725551429448 0.010647531885691171 0.0080550830887243172 -0.0069448208589034137 0.0031011238441304907 0.025504763434764835 -0.0087835088502109544 -0.0019242014341249913 0.005104896057724303 -0.0086452914307192617 0.0073102481429930932 -4.5532492023724739e-05 -0.008788904734876056 0.0050225642126648373 -0.002414992439266541 -0.0087108899180913923 0.0064421408265352767 0.011117807567154929
leaf_weight=3805.8845608085394 1734.5386295765638 1388.5799739807844 4526.7819101512432 269.78193888068199 1389.288148611784 4055.3034924715757 5784.1644066125154 148.62207648158073 1145.9248079508543 6191.1031060516834 439.24288129806519 1162.2773469686508 201.92985755205154 197.01341009140015 6494.3677336275578 1085.7672230154276 4573.7194929867983 143.00987584888935 308.5349055826664 2792.2437944561243 2148.844801992178 3353.0914336889982 1993.352160051465 836.13525535166264 109.87264867126942 2219.1152982115746 148.7365986853838 114.10421413183212 70.896080911159515 2262.9459292888641
leaf_count=23741 8221 7153 26162 1354 7259 22521 27976 858 6131 36957 2402 6710 865 952 32071 6010 23511 603 1761 15306 10919 19938 10005 4559 644 11487 761 625 389 10853
internal_value=0 0.00336138 -0.00129422 -0.00601858 -0.00394921 -0.00310178 0.00627977 0.00474406 -0.000346097 -0.00885864 -9.33056e-05 -0.00184466 0.00922741 -0.00305271 0.00747244 0.00269456 0.00117382 0.0114316 -0.00676882 -0.00353886 0.00314713 -0.0102224 0.00523943 -0.00240077 0.0033597 0.00386182 0.00782066 0.00261178 -0.0083329 0.00888237
internal_weight=0 39178.3 15096.1 21916.9 14687 13218.5 24082.2 15833.1 7547.09 6460.89 8226.14 5457.91 8249.04 4252.32 6791.73 9041.42 5659.49 1877.55 5671.45 3954.52 3294.77 7229.87 3381.93 1144.67 2768.23 2658.36 6643.1 1503.39 3423.99 8047.11
internal_count=328704 201892 81829 126812 82744 73005 120063 80369 40523 38311 44433 29900 39694 23473 33690 46679 29521 8824 32482 22016 17050 44068 17158 6320 14533 13889 32832 7884 20327 38829
is_linear=0
shrinkage=0.01


Tree=24
num_leaves=31
num_cat=0
split_feature=2 1 1 2 1 10 2 1 1 1 1 1 9 0 7 1 0 2 1 4 2 3 3 9 1 14 3 3 3 1
split_gain=12142.4 5198.32 3395.36 1891.09 2745.59 1316.58 1060.2 863.831 699.551 614.315 541.389 494.836 445.535 380.466 379.504 379.005 377.206 300.423 270.78 232.086 231.265 212.891 185.568 165.868 165.688 176.766 156.785 156.561 155.831 152.496
threshold=20.500000000000004 1119808876872.0002 702778646930.00012 17.500000000000004 1119808876872.0002 22.500000000000004 25.500000000000004 4363500796232.0005 1119808869562.5002 702778646930.00012 3985955692129.0005 4363500802198.0005 3742.0000000000005 4354032.5000000009 122.50000000000001 3985955692129.0005 4348916.5000000009 31.500000000000004 1119808873212.5002 16.500000000000004 23.500000000000004 28.500000000000004 18.500000000000004 20.500000000000004 4363500809332.5005 30.840485363222328 32.500000000000007 21.500000000000004 29.500000000000004 4363500798102.0005
decision_type=2 2 2 2 2 2 2 2 2 2 2 2 2 2 2 2 2 2 2 2 2 2 2 2 2 2 2 2 2 2
left_child=3 2 17 19 9 18 7 10 14 -5 21 15 27 29 -7 26 -12 -2 -4 -1 -10 -3 -17 -20 25 -13 -6 -9 -21 -8
right_child=1 6 5 4 11 8 13 12 20 -11 16 24 -14 -15 -16 22 -18 -19 23 28 -22 -23 -24 -25 -26 -27 -28 -29 -30 -31
leaf_value=-0.011888310786323821 0.0082886258653302371 0.0037665503457787125 -0.0079224736314908312 0.0058877949326055223 0.0012034332597381722 -0.0036883958006941409 0.0079014343086435557 0.0050265207080719314 -0.00051898768336552589 -0.0095128140341405616 -0.0039558155040416258 -0.0019844732452988356 -0.0087522930263197359 0.022620587409318924 0.010494931871564493 -0.0067798794139777088 0.0028334617585908501 0.01661454497108707 -0.0065127114870910784 -0.0086015736732976099 0.0050419359927254348 0.01051502918330775 -0.0020723032475054894 0.00064747086485991907 -0.0087445359528338928 0.004960430340077082 0.011408639480985196 0.0081817755429737429 0.0063563489664356567 0.010956976365864039
leaf_weight=3778.7179819643497 1210.1850250959396 3946.6844442039728 4351.4541144967079 270.5051172375679 1399.1661242097616 4047.3295592069626 5803.3044200837612 2162.7574323564768 1145.6238078325987 6094.7022024095058 1748.7211194932461 438.78758983314037 176.29474039375782 203.06100258231163 197.87489369511604 1205.6064389199018 1538.1198947131634 675.16226978600025 610.6810796558857 3336.5155366063118 2153.895675778389 530.2674632370472 2741.3468820750713 688.04431150853634 109.3285643607378 2224.4157613813877 168.69326582551003 5762.9184885174036 71.133234828710556 2273.148967191577
leaf_count=23741 5763 20066 25293 1354 7406 22521 27976 10874 6131 36599 9592 2402 1014 865 952 6926 7949 3061 3466 19938 10919 2570 15090 3723 644 11487 836 28304 389 10853
internal_value=0 0.00332364 -0.00128273 -0.00597987 -0.00391906 -0.00307636 0.00620061 0.00468687 -0.000342787 -0.00885833 0.00230322 -0.000125388 0.00697103 0.00910133 -0.00302729 -0.00185798 -0.000778685 0.0112702 -0.00672651 -0.0101817 0.00311113 0.00456587 -0.00351024 -0.00271936 0.00332089 0.00381619 0.00230146 0.00732077 -0.00828933 0.00876143
internal_weight=0 39225.5 15080.3 21838.9 14652.6 13194.9 24145.3 15865.8 7544.72 6365.21 7763.79 8287.34 8101.97 8279.51 4245.2 5514.81 3286.84 1885.35 5650.18 7186.37 3299.52 4476.95 3946.95 1298.73 2772.53 2663.2 1567.86 7925.68 3407.65 8076.45
internal_count=328704 201892 81829 126812 82744 73005 120063 80369 40523 37953 40177 44791 40192 39694 23473 30258 17541 8824 32482 44068 17050 22636 22016 7189 14533 13889 8242 39178 20327 38829
is_linear=0
shrinkage=0.01


Tree=25
num_leaves=31
num_cat=0
split_feature=2 1 1 2 1 10 2 1 1 1 1 1 7 0 8 0 0 4 1 5 4 2 0 8 1 14 9 1 10 1
split_gain=11923.4 5076.86 3320.08 1875.72 2711.38 1297.66 1031.28 842.827 685.822 602.599 477.197 397.364 371.457 370.102 351.836 339.078 858.048 295.604 268.262 243.509 231.972 225.865 201.084 168.672 162.58 172.686 154.011 150.583 150.256 147.865
threshold=20.500000000000004 1119808876872.0002 702778646930.00012 17.500000000000004 1119808877208.5002 22.500000000000004 25.500000000000004 4363500798102.0005 1119808869562.5002 702778646930.00012 4363500802198.0005 3985955692129.0005 122.50000000000001 4354032.5000000009 4171.0000000000009 4226366.5000000009 4266635.0000000009 32.500000000000007 1119808873607.5002 18.500000000000004 16.500000000000004 23.500000000000004 4226210.0000000009 19.500000000000004 4363500809332.5005 30.840485363222328 20.500000000000004 1119808877208.5002 29.500000000000004 4363500798102.0005
decision_type=2 2 2 2 2 2 2 2 2 2 2 2 2 2 2 2 2 2 2 2 2 2 2 2 2 2 2 2 2 2
left_child=3 2 17 20 9 18 7 15 12 -5 11 -6 -7 29 26 22 -17 -2 -4 -13 -1 -10 -3 -20 25 -12 -9 -22 -15 -8
right_child=1 6 5 4 10 8 13 14 21 -11 24 19 -14 28 -16 16 -18 -19 23 -21 27 -23 -24 -25 -26 -27 -28 -29 -30 -31
leaf_value=-0.011854763936619996 0.0079520836137527591 0.0022106221565531595 -0.0077854430398481972 0.0058135349333865646 0.0025561606569222801 -0.0036587020403648167 0.00779703812433426 0.010184176346984312 -0.00051393228467380475 -0.0094187735696878595 -0.0019666620154577992 -0.0073440013067697417 0.01034564833646506 -0.0051420643108969965 -0.0090397461956788147 -0.0068840538257905403 0.0030221509087410676 0.016053742041505045 -0.0087069882538689785 -0.0018813428726791751 -0.010631009825032518 0.0049799478444903381 0.0071587979679398547 -2.9198759085686941e-05 -0.0087003996120896994 0.0048992578763900913 0.0067095558352226158 -0.0063843068653655476 0.024960935670463202 0.010799728061577753
leaf_weight=3751.6528007984161 1154.7588838636875 1391.8131085783243 4487.5586529970169 271.21725234389305 1506.8825760483742 4039.4154402017593 5822.1006649285555 1713.7071066051722 1145.3256974071264 6123.85364587605 438.33620975911617 1154.1780802309513 198.71856895089149 18.20453479886055 129.56243482232094 1080.2293220758438 4588.2742271870375 738.3068070858717 306.04498861730099 2785.3076893389225 1486.7326496243477 2158.8741139918566 2003.4758550971746 835.3955679833889 108.78706607222557 2229.6416773051023 4990.6480556875467 1904.6565868407488 185.92702378332615 2283.1337664425373
leaf_count=23741 5493 7153 26162 1354 7884 22521 27976 8477 6131 36957 2402 6710 952 86 755 6010 23511 3331 1761 15306 9065 10919 10005 4559 644 11487 24458 11262 779 10853
internal_value=0 0.00328644 -0.00127135 -0.0059414 -0.00388912 -0.00305113 0.00612282 0.0046306 -0.000339508 -0.00877277 -9.1149e-05 -0.00181122 -0.00300206 0.00897778 0.00728228 0.00263128 0.00113436 0.0111118 -0.00668445 -0.00348178 -0.0101414 0.00307562 0.00513042 -0.0023559 0.00328261 0.00377122 0.00759771 -0.008246 0.0222763 0.00864285
internal_weight=0 39271.5 15064.4 21761.2 14618.2 13171.3 24207.1 15897.7 7542.33 6395.07 8223.13 5446.37 4238.13 8309.37 6833.92 9063.79 5668.5 1893.07 5629 3939.49 7143.04 3304.2 3395.29 1141.44 2776.76 2667.98 6704.36 3391.39 204.132 8105.23
internal_count=328704 201892 81829 126812 82744 73005 120063 80369 40523 38311 44433 29900 23473 39694 33690 46679 29521 8824 32482 22016 44068 17050 17158 6320 14533 13889 32935 20327 865 38829
is_linear=0
shrinkage=0.01


Tree=26
num_leaves=31
num_cat=0
split_feature=2 2 2 0 0 0 0 0 0 3 2 0 9 12 3 2 0 0 0 9 0 0 2 3 3 0 6 11 3 3
split_gain=11716.8 2698.3 2694.63 985.47 1012.41 912.641 1043.72 3488.45 629.926 563.981 520.512 419.408 383.405 335.006 256.479 243.984 194.511 193.318 223.183 177.246 176.345 497.426 180.235 175.922 141.584 127.864 108.972 101.059 99.3892 98.6224
threshold=21.500000000000004 29.500000000000004 18.500000000000004 4226279.5000000009 4266635.0000000009 4352814.5000000009 4291131.5000000009 4226366.5000000009 4354018.0000000009 22.500000000000004 16.500000000000004 4352582.5000000009 69.500000000000014 34.367026642717867 37.500000000000007 24.500000000000004 4226210.0000000009 4226379.0000000009 4215535.0000000009 40.500000000000007 4226247.5000000009 4301926.5000000009 4189.5000000000009 19.500000000000004 29.500000000000004 4226366.5000000009 4427.5000000000009 23.500000000000004 14.500000000000002 20.500000000000004
decision_type=2 2 2 2 2 2 2 2 2 2 2 2 2 2 2 2 2 2 2 2 2 2 2 2 2 2 2 2 2 2
left_child=2 5 10 16 19 6 7 14 23 29 24 20 -9 -13 -2 -11 28 18 -12 -5 -3 25 -23 -6 -1 -22 -10 -7 -4 -8
right_child=1 11 3 4 8 27 9 12 26 15 17 13 -14 -15 -16 -17 -18 -19 -20 -21 21 22 -24 -25 -26 -27 -28 -29 -30 -31
leaf_value=-0.011651552652399129 0.0053961711029090944 0.012225380162598463 -0.012617184883855227 -0.0092037466945601425 -0.0030727185175771412 -0.0080688987313359915 -0.00108896720243531 -0.0062553227239086889 -0.01103268916424492 0.0043255031354815969 -0.0078103923273519305 0.024185778231570254 0.0075162601509062548 -0.001846581159147912 0.011895387232324733 0.0070561339097120982 0.0073558004779892662 -0.0074552226492681775 0.0052558540809021208 0.0036194285777941242 0.010040721454140027 0.012349970177333785 0.0024770166040734031 -0.00038957883868279863 0.0052780296979508638 -0.001768793376362152 0.015055845374699178 -0.0024998320926398121 0.0018145786058785343 0.0024354718059458628
leaf_weight=4133.4665317237377 4447.0721403062344 2019.6787845492363 50.581349104642868 2608.3536889851093 3666.4136316478252 667.47644773125648 1017.7859358042479 4483.1889965683222 779.62077671289444 6400.2932934165001 255.67930616438389 359.21292023360729 211.70385204255581 57.322610035538673 703.21312284469604 6694.9800303727388 1042.0877147912979 6319.274768948555 267.4873266518116 112.43839809298515 112.57147531211376 1399.4328862577677 213.05341355502605 7326.9766821265221 49.996832266449928 494.07135108113289 16.346642926335335 636.6262012720108 843.56761418282986 3610.1971372365952
leaf_count=26101 21982 9436 286 15315 20547 3848 5339 25057 4666 32626 1490 1516 1066 315 3349 33202 5271 37594 1445 629 532 6705 1032 39961 277 2483 92 3512 4363 18667
internal_value=0 0.00396333 -0.00484551 -0.00228118 -0.00317537 0.0028242 0.00321088 0.000600251 -0.00190642 0.00466107 -0.0086705 0.0110283 -0.00563433 0.0206033 0.00628357 0.00572154 0.00441987 -0.00697159 -0.00112981 -0.00867382 0.0100874 0.00814152 0.0110455 -0.00128443 -0.0114492 0.000422635 -0.0104969 -0.00535024 0.000998184 0.00166038
internal_weight=0 33527.9 27472.3 16446.4 14510.1 28872.5 27568.4 9845.18 11789.4 17723.3 11025.9 4655.34 4694.89 416.536 5150.29 13095.3 1936.24 6842.44 523.167 2720.79 4238.81 2219.13 1612.49 10993.4 4183.46 606.643 795.967 1304.1 894.149 4627.98
internal_count=328704 170667 158037 91130 81210 148648 141288 51454 65266 89834 66907 22019 26123 1831 25331 65828 9920 40529 2935 15944 20188 10752 7737 60508 26378 3015 4758 7360 4649 24006
is_linear=0
shrinkage=0.01


Tree=27
num_leaves=31
num_cat=0
split_feature=2 2 2 0 0 0 0 3 9 0 0 9 0 0 3 3 4 2 0 0 0 3 0 6 3 3 10 4 11 4
split_gain=11504.7 3139.33 1846.44 1051.83 946.825 3742.19 787.05 774.994 624.946 611.146 481.681 455.821 431.61 303.394 246.74 233.05 231.87 204.746 194.719 171.236 834.478 152.782 151.1 149.834 130.561 96.754 85.3798 76.3981 74.67 68.1988
